{"learner":{"attributes":{"scikit_learn":"{\"_estimator_type\": \"regressor\"}"},"feature_names":["x","y","building_height","hour(0)","emission_value(0)","nbr(0)","nbl(0)","nbu(0)","nbd(0)","nbr_out(0)","nbl_out(0)","nbu_out(0)","nbd_out(0)","emission_value_out(0)","hour(1)","emission_value(1)","nbr(1)","nbl(1)","nbu(1)","nbd(1)","nbr_out(1)","nbl_out(1)","nbu_out(1)","nbd_out(1)","emission_value_out(1)","hour(2)","emission_value(2)","nbr(2)","nbl(2)","nbu(2)","nbd(2)","nbr_out(2)","nbl_out(2)","nbu_out(2)","nbd_out(2)","emission_value_out(2)","hour(3)","emission_value(3)","nbr(3)","nbl(3)","nbu(3)","nbd(3)","wind"],"feature_types":["int","int","float","int","float","float","float","float","float","float","float","float","float","float","int","float","float","float","float","float","float","float","float","float","float","int","float","float","float","float","float","float","float","float","float","float","int","float","float","float","float","float","float"],"gradient_booster":{"model":{"gbtree_model_param":{"num_parallel_tree":"1","num_trees":"100"},"iteration_indptr":[0,1,2,3,4,5,6,7,8,9,10,11,12,13,14,15,16,17,18,19,20,21,22,23,24,25,26,27,28,29,30,31,32,33,34,35,36,37,38,39,40,41,42,43,44,45,46,47,48,49,50,51,52,53,54,55,56,57,58,59,60,61,62,63,64,65,66,67,68,69,70,71,72,73,74,75,76,77,78,79,80,81,82,83,84,85,86,87,88,89,90,91,92,93,94,95,96,97,98,99,100],"tree_info":[0,0,0,0,0,0,0,0,0,0,0,0,0,0,0,0,0,0,0,0,0,0,0,0,0,0,0,0,0,0,0,0,0,0,0,0,0,0,0,0,0,0,0,0,0,0,0,0,0,0,0,0,0,0,0,0,0,0,0,0,0,0,0,0,0,0,0,0,0,0,0,0,0,0,0,0,0,0,0,0,0,0,0,0,0,0,0,0,0,0,0,0,0,0,0,0,0,0,0,0],"trees":[{"base_weights":[1.2650515E-10,-8.096769E-3,1.2697552E-2,-8.15387E-3,9.707597E-4,6.724223E-3,2.1389646E-2,-2.4495316E-3,1.0904152E-3,1.5752992E-3,8.8821846E-4,4.684426E-3,1.0465363E-2,1.9415079E-2,3.137489E-2,3.1847958E-4,5.194157E-4,7.358001E-4,1.1030948E-3,3.519399E-3,6.416142E-3,8.833412E-3,1.1628202E-2,1.7289992E-2,2.174688E-2,2.87665E-2,3.9864603E-2,6.305645E-4,1.0469526E-3,9.979638E-4,1.5045418E-3,7.575718E-3,3.1145543E-3,5.995049E-3,6.2822457E-3,1.0141053E-2,8.028639E-3,1.3326514E-2,1.0675486E-2,1.8163288E-2,1.3746462E-2,2.3035606E-2,1.9634092E-2,2.9122218E-2,4.1944617E-3,4.9317785E-2,3.7944935E-2,1.6908962E-4,2.113687E-4,3.4053077E-4,2.8451838E-4,2.6437637E-4,3.4648052E-4,3.955784E-4,6.9361355E-4,1.898649E-3,4.0933634E-3,6.413618E-4,1.1858337E-3,1.323595E-3,1.9800176E-3,2.1469307E-3,3.23929E-3,2.3419303E-3,2.9361183E-3,3.3437812E-3,4.4050193E-3,2.367169E-3,3.2865533E-3,5.340926E-3,7.4115177E-3,3.2733486E-3,4.6556457E-3,6.3134343E-3,7.89829E-3,5.2313763E-3,6.5792915E-3,8.196602E-3,9.589061E-3,1.3497378E-2,1.6085468E-2,1.0720711E-2,1.3122558E-2],"categories":[],"categories_nodes":[],"categories_segments":[],"categories_sizes":[],"default_left":[0,0,0,0,0,0,0,0,0,0,0,0,0,0,0,0,0,0,0,0,0,0,0,0,0,0,0,0,0,0,0,0,0,0,0,0,0,0,0,0,0,0,0,0,0,0,0,0,0,0,0,0,0,0,0,0,0,0,0,0,0,0,0,0,0,0,0,0,0,0,0,0,0,0,0,0,0,0,0,0,0,0,0],"id":0,"left_children":[1,3,5,7,9,11,13,-1,15,-1,17,19,21,23,25,-1,-1,27,29,31,33,35,37,39,41,43,45,47,49,51,53,55,57,-1,59,61,63,65,67,69,71,73,75,77,-1,79,81,-1,-1,-1,-1,-1,-1,-1,-1,-1,-1,-1,-1,-1,-1,-1,-1,-1,-1,-1,-1,-1,-1,-1,-1,-1,-1,-1,-1,-1,-1,-1,-1,-1,-1,-1,-1],"loss_changes":[4.7194237E1,1.451397E-1,9.280224E0,2.8938293E-2,6.153708E-4,8.083968E-1,1.4347916E0,0E0,4.4235203E-6,0E0,5.5618584E-5,1.3829899E-1,7.0833206E-2,3.0083084E-1,2.6498508E-1,0E0,0E0,3.244431E-5,2.8590322E-5,6.728774E-2,4.996395E-2,1.6290069E-2,3.5169125E-2,9.817886E-2,7.8453064E-2,4.7962666E-2,4.9339294E-2,3.357156E-6,1.130189E-6,9.387906E-6,1.8873718E-5,2.8055862E-2,3.0504525E-2,0E0,1.62009E-2,1.1529744E-2,3.6882758E-3,2.3030281E-2,1.0807514E-2,5.9681892E-2,3.1454086E-2,1.1737633E-1,5.5035114E-2,4.5058727E-2,0E0,6.3881874E-3,2.8532743E-2,0E0,0E0,0E0,0E0,0E0,0E0,0E0,0E0,0E0,0E0,0E0,0E0,0E0,0E0,0E0,0E0,0E0,0E0,0E0,0E0,0E0,0E0,0E0,0E0,0E0,0E0,0E0,0E0,0E0,0E0,0E0,0E0,0E0,0E0,0E0,0E0],"parents":[2147483647,0,0,1,1,2,2,3,3,4,4,5,5,6,6,8,8,10,10,11,11,12,12,13,13,14,14,17,17,18,18,19,19,20,20,21,21,22,22,23,23,24,24,25,25,26,26,27,27,28,28,29,29,30,30,31,31,32,32,34,34,35,35,36,36,37,37,38,38,39,39,40,40,41,41,42,42,43,43,45,45,46,46],"right_children":[2,4,6,8,10,12,14,-1,16,-1,18,20,22,24,26,-1,-1,28,30,32,34,36,38,40,42,44,46,48,50,52,54,56,58,-1,60,62,64,66,68,70,72,74,76,78,-1,80,82,-1,-1,-1,-1,-1,-1,-1,-1,-1,-1,-1,-1,-1,-1,-1,-1,-1,-1,-1,-1,-1,-1,-1,-1,-1,-1,-1,-1,-1,-1,-1,-1,-1,-1,-1,-1],"split_conditions":[9.162673E-3,8.888236E-3,2.2076124E-2,8.888236E-3,1E0,1.5453936E-2,3.5310447E-2,-2.4495316E-3,1.1E1,1.5752992E-3,8E0,1.2875082E-2,1.7599754E-2,2.6871935E-2,4.5145232E-2,3.1847958E-4,5.194157E-4,9.856764E-3,9.56445E-3,1E0,1E0,1.5217823E-2,2.8E1,2.8E1,2.7E1,4.3E1,3.801768E-2,9.520441E-3,1.45E2,8.888236E-3,2.96E2,1.029246E-2,1.0840617E-2,5.995049E-3,3E0,1.2E1,3.7E1,1.2E1,3E1,2.4E1,3E1,2.4E1,3.0051421E-2,3.9283067E-2,4.1944617E-3,4.9768012E-2,5.4286845E-2,1.6908962E-4,2.113687E-4,3.4053077E-4,2.8451838E-4,2.6437637E-4,3.4648052E-4,3.955784E-4,6.9361355E-4,1.898649E-3,4.0933634E-3,6.413618E-4,1.1858337E-3,1.323595E-3,1.9800176E-3,2.1469307E-3,3.23929E-3,2.3419303E-3,2.9361183E-3,3.3437812E-3,4.4050193E-3,2.367169E-3,3.2865533E-3,5.340926E-3,7.4115177E-3,3.2733486E-3,4.6556457E-3,6.3134343E-3,7.89829E-3,5.2313763E-3,6.5792915E-3,8.196602E-3,9.589061E-3,1.3497378E-2,1.6085468E-2,1.0720711E-2,1.3122558E-2],"split_indices":[35,13,35,35,3,35,35,0,3,0,3,35,35,35,35,0,0,13,13,3,3,13,3,3,3,3,24,13,0,35,1,35,35,0,3,3,3,3,3,3,3,3,35,35,0,35,35,0,0,0,0,0,0,0,0,0,0,0,0,0,0,0,0,0,0,0,0,0,0,0,0,0,0,0,0,0,0,0,0,0,0,0,0],"split_type":[0,0,0,0,0,0,0,0,0,0,0,0,0,0,0,0,0,0,0,0,0,0,0,0,0,0,0,0,0,0,0,0,0,0,0,0,0,0,0,0,0,0,0,0,0,0,0,0,0,0,0,0,0,0,0,0,0,0,0,0,0,0,0,0,0,0,0,0,0,0,0,0,0,0,0,0,0,0,0,0,0,0,0],"sum_hessian":[4.59045E5,2.80305E5,1.7874E5,2.78551E5,1.754E3,1.05939E5,7.2801E4,2.78213E5,3.38E2,3.2E1,1.722E3,6.856E4,3.7379E4,6.0784E4,1.2017E4,3.26E2,1.2E1,1.01E3,7.12E2,4.0988E4,2.7572E4,1.5556E4,2.1823E4,3.1806E4,2.8978E4,9.196E3,2.821E3,7.57E2,2.53E2,5.67E2,1.45E2,3.718E3,3.727E4,2.68E2,2.7304E4,5.922E3,9.634E3,7.838E3,1.3985E4,2.5514E4,6.292E3,1.7993E4,1.0985E4,8.979E3,2.17E2,4.72E2,2.349E3,4.02E2,3.55E2,1.28E2,1.25E2,3.29E2,2.38E2,1.2E2,2.5E1,3.086E3,6.32E2,1.7215E4,2.0055E4,3.968E3,2.3336E4,1.07E3,4.852E3,8.558E3,1.076E3,3.01E3,4.828E3,1.279E3,1.2706E4,2.4186E4,1.328E3,2.423E3,3.869E3,1.1217E4,6.776E3,5.62E3,5.365E3,5.503E3,3.476E3,2.41E2,2.31E2,1.706E3,6.43E2],"tree_param":{"num_deleted":"0","num_feature":"43","num_nodes":"83","size_leaf_vector":"1"}},{"base_weights":[3.6162479E-7,-5.026571E-3,1.0026943E-2,-5.7003833E-3,1.9691437E-3,5.896722E-3,1.5528684E-2,-1.7146746E-3,5.3557695E-4,4.7059283E-3,1.5695513E-3,4.270991E-3,8.228509E-3,1.4230963E-2,2.2849353E-2,4.2799674E-4,6.378781E-4,4.111993E-3,7.2325068E-3,9.889823E-4,1.9812323E-3,1.2584302E-2,4.173259E-3,9.509454E-3,7.3310654E-3,1.3152865E-2,1.6557742E-2,2.1128522E-2,2.9143706E-2,1.4348919E-4,9.3162926E-5,6.079302E-4,2.8688667E-4,3.6402638E-3,4.6813376E-3,8.909414E-3,6.2226197E-3,6.842143E-4,1.2502061E-3,1.4328123E-3,2.3533837E-3,9.954907E-3,1.3699052E-2,3.1826338E-3,5.1189545E-3,7.7574146E-3,1.0389662E-2,6.101232E-3,7.808104E-3,1.3633087E-2,1.0928487E-2,1.85964E-2,1.4940928E-2,2.6024127E-2,2.0439995E-2,3.6024474E-2,2.767954E-2,1.6160993E-4,2.0331152E-4,1.0529549E-3,1.3622413E-3,1.3207276E-3,1.6704656E-3,2.473753E-3,2.825303E-3,2.0152952E-3,1.4000445E-3,1.5007924E-4,2.9878342E-4,2.6843377E-4,4.556044E-4,3.4395704E-4,4.9902854E-4,7.4234436E-4,3.0027074E-4,3.356937E-3,2.5041478E-3,3.7839874E-3,4.4956566E-3,6.682646E-4,1.0778375E-3,1.4680439E-3,1.991091E-3,1.9871632E-3,2.7991384E-3,2.7706237E-3,3.2859298E-3,1.7434286E-3,2.361124E-3,2.1631368E-3,2.7330962E-3,3.870455E-3,5.3174957E-3,2.6911874E-3,3.8329517E-3,5.167423E-3,6.2978007E-3,4.586067E-3,2.1202322E-3,5.8327364E-3,8.046891E-3,6.2164483E-3,2.8893305E-3,1.1025978E-2,6.6591864E-3,7.7876253E-3,9.183724E-3],"categories":[],"categories_nodes":[],"categories_segments":[],"categories_sizes":[],"default_left":[0,0,0,0,0,0,0,0,0,0,0,0,0,0,0,0,0,0,0,0,0,0,0,0,0,0,0,0,0,0,0,0,0,0,0,0,0,0,0,0,0,0,0,0,0,0,0,0,0,0,0,0,0,0,0,0,0,0,0,0,0,0,0,0,0,0,0,0,0,0,0,0,0,0,0,0,0,0,0,0,0,0,0,0,0,0,0,0,0,0,0,0,0,0,0,0,0,0,0,0,0,0,0,0,0,0,0],"id":1,"left_children":[1,3,5,7,9,11,13,-1,15,17,19,21,23,25,27,29,31,33,35,37,39,41,43,45,47,49,51,53,55,-1,-1,57,-1,59,61,63,65,67,69,71,73,75,77,79,81,83,85,87,89,91,93,95,97,99,101,103,105,-1,-1,-1,-1,-1,-1,-1,-1,-1,-1,-1,-1,-1,-1,-1,-1,-1,-1,-1,-1,-1,-1,-1,-1,-1,-1,-1,-1,-1,-1,-1,-1,-1,-1,-1,-1,-1,-1,-1,-1,-1,-1,-1,-1,-1,-1,-1,-1,-1,-1],"loss_changes":[2.3137323E1,1.4412742E0,3.4832468E0,2.6435852E-2,2.9369943E-2,3.3190012E-1,6.2414265E-1,0E0,7.1997783E-6,5.105391E-3,5.6008995E-3,4.186642E-2,4.1279316E-2,1.3984966E-1,1.06573105E-1,1.8247374E-6,2.7180067E-6,7.2772056E-4,1.0453239E-3,7.7361707E-4,2.7957894E-3,1.6193688E-3,4.775822E-2,2.276647E-2,1.2363434E-2,4.061556E-2,5.7984352E-2,2.5675774E-2,2.0380974E-2,0E0,0E0,1.1758675E-6,0E0,1.626946E-4,2.854336E-4,3.9618462E-6,2.8365105E-4,2.57086E-4,4.9837306E-4,3.6432128E-4,1.335457E-3,2.6793592E-4,3.9484352E-4,9.74974E-3,8.896828E-3,8.77887E-3,6.309986E-3,2.9879808E-3,1.1794329E-2,9.371376E-2,2.4420202E-2,2.5322199E-2,2.6758194E-2,4.4996142E-3,2.0554543E-2,2.9025674E-3,8.057594E-3,0E0,0E0,0E0,0E0,0E0,0E0,0E0,0E0,0E0,0E0,0E0,0E0,0E0,0E0,0E0,0E0,0E0,0E0,0E0,0E0,0E0,0E0,0E0,0E0,0E0,0E0,0E0,0E0,0E0,0E0,0E0,0E0,0E0,0E0,0E0,0E0,0E0,0E0,0E0,0E0,0E0,0E0,0E0,0E0,0E0,0E0,0E0,0E0,0E0,0E0],"parents":[2147483647,0,0,1,1,2,2,3,3,4,4,5,5,6,6,8,8,9,9,10,10,11,11,12,12,13,13,14,14,15,15,16,16,17,17,18,18,19,19,20,20,21,21,22,22,23,23,24,24,25,25,26,26,27,27,28,28,31,31,33,33,34,34,35,35,36,36,37,37,38,38,39,39,40,40,41,41,42,42,43,43,44,44,45,45,46,46,47,47,48,48,49,49,50,50,51,51,52,52,53,53,54,54,55,55,56,56],"right_children":[2,4,6,8,10,12,14,-1,16,18,20,22,24,26,28,30,32,34,36,38,40,42,44,46,48,50,52,54,56,-1,-1,58,-1,60,62,64,66,68,70,72,74,76,78,80,82,84,86,88,90,92,94,96,98,100,102,104,106,-1,-1,-1,-1,-1,-1,-1,-1,-1,-1,-1,-1,-1,-1,-1,-1,-1,-1,-1,-1,-1,-1,-1,-1,-1,-1,-1,-1,-1,-1,-1,-1,-1,-1,-1,-1,-1,-1,-1,-1,-1,-1,-1,-1,-1,-1,-1,-1,-1,-1],"split_conditions":[1.1301361E-2,8.888236E-3,2.3769815E-2,8.888236E-3,1E0,1.6454633E-2,3.650552E-2,-1.7146746E-3,8E0,9.813333E-3,1.0057723E-2,1E0,2.5E1,2.9315313E-2,4.7029495E-2,2.85E2,9.344203E-3,1.0412612E-2,1.14E2,8E0,8E0,1.2037482E-2,1.3897649E-2,1.2E1,3.2E1,2.8E1,2.6E1,1.6E1,3.858821E-2,1.4348919E-4,9.3162926E-5,9.052221E-3,2.8688667E-4,9.607674E-3,9.585942E-3,9.841643E-3,1.74E2,1.073274E-2,9.484655E-3,1.1748992E-2,1.3660398E-2,1.38E2,5.2027185E-3,8E0,4.1E1,1.9780932E-2,1.939476E-2,3.1260215E-2,2.0086389E-2,2.4E1,3E1,2.4E1,4.3E1,1.2E1,4.3E1,2.6E1,5.4286845E-2,1.6160993E-4,2.0331152E-4,1.0529549E-3,1.3622413E-3,1.3207276E-3,1.6704656E-3,2.473753E-3,2.825303E-3,2.0152952E-3,1.4000445E-3,1.5007924E-4,2.9878342E-4,2.6843377E-4,4.556044E-4,3.4395704E-4,4.9902854E-4,7.4234436E-4,3.0027074E-4,3.356937E-3,2.5041478E-3,3.7839874E-3,4.4956566E-3,6.682646E-4,1.0778375E-3,1.4680439E-3,1.991091E-3,1.9871632E-3,2.7991384E-3,2.7706237E-3,3.2859298E-3,1.7434286E-3,2.361124E-3,2.1631368E-3,2.7330962E-3,3.870455E-3,5.3174957E-3,2.6911874E-3,3.8329517E-3,5.167423E-3,6.2978007E-3,4.586067E-3,2.1202322E-3,5.8327364E-3,8.046891E-3,6.2164483E-3,2.8893305E-3,1.1025978E-2,6.6591864E-3,7.7876253E-3,9.183724E-3],"split_indices":[35,35,35,13,3,35,35,0,3,35,35,3,3,35,35,1,13,13,0,3,3,35,35,3,3,3,3,3,24,0,0,13,0,24,35,20,0,13,35,13,13,0,37,3,3,35,35,13,35,3,3,3,3,3,3,3,35,0,0,0,0,0,0,0,0,0,0,0,0,0,0,0,0,0,0,0,0,0,0,0,0,0,0,0,0,0,0,0,0,0,0,0,0,0,0,0,0,0,0,0,0,0,0,0,0,0,0],"split_type":[0,0,0,0,0,0,0,0,0,0,0,0,0,0,0,0,0,0,0,0,0,0,0,0,0,0,0,0,0,0,0,0,0,0,0,0,0,0,0,0,0,0,0,0,0,0,0,0,0,0,0,0,0,0,0,0,0,0,0,0,0,0,0,0,0,0,0,0,0,0,0,0,0,0,0,0,0,0,0,0,0,0,0,0,0,0,0,0,0,0,0,0,0,0,0,0,0,0,0,0,0,0,0,0,0,0,0],"sum_hessian":[4.59045E5,3.05753E5,1.53292E5,2.78891E5,2.6862E4,8.7561E4,6.5731E4,2.78213E5,6.78E2,3.421E3,2.3441E4,5.1593E4,3.5968E4,5.5836E4,9.895E3,3.33E2,3.45E2,2.772E3,6.49E2,9.727E3,1.3714E4,5.98E2,5.0995E4,1.4814E4,2.1154E4,3.8161E4,1.7675E4,7.774E3,2.121E3,2.31E2,1.02E2,3.18E2,2.7E1,1.52E3,1.252E3,2.41E2,4.08E2,4.491E3,5.236E3,5.546E3,8.168E3,1.81E2,4.17E2,2.4908E4,2.6087E4,4.957E3,9.857E3,5.916E3,1.5238E4,3.1381E4,6.78E3,7.813E3,9.862E3,9.54E2,6.82E3,3.68E2,1.753E3,1.64E2,1.54E2,1.332E3,1.88E2,9.57E2,2.95E2,1.12E2,1.29E2,3.07E2,1.01E2,2.826E3,1.665E3,2.255E3,2.981E3,2.477E3,3.069E3,7.496E3,6.72E2,9.9E1,8.2E1,2.32E2,1.85E2,7.485E3,1.7423E4,2.2717E4,3.37E3,2.884E3,2.073E3,3.239E3,6.618E3,5.087E3,8.29E2,1.0449E4,4.789E3,2.6625E4,4.756E3,3.295E3,3.485E3,4.974E3,2.839E3,9.446E3,4.16E2,1.06E2,8.48E2,6.646E3,1.74E2,3.48E2,2E1,1.111E3,6.42E2],"tree_param":{"num_deleted":"0","num_feature":"43","num_nodes":"107","size_leaf_vector":"1"}},{"base_weights":[5.735535E-7,-3.4950033E-3,7.070419E-3,-3.990271E-3,1.3893589E-3,4.2220633E-3,1.0946859E-2,-1.2002741E-3,3.7621253E-4,3.3138013E-3,1.1225401E-3,3.083199E-3,5.912064E-3,1.0169589E-2,1.724031E-2,3.0030645E-4,4.483987E-4,2.8803446E-3,5.100182E-3,7.829031E-4,1.5020098E-3,2.5600577E-3,3.942033E-3,6.8145436E-3,5.235415E-3,9.39423E-3,1.212338E-2,1.6186226E-2,2.1437772E-2,7.830166E-5,1.1651606E-4,1.3056348E-4,2.853458E-4,2.6766427E-3,3.6199118E-3,4.0705753E-3,6.044125E-3,5.4475025E-4,9.768378E-4,1.4295225E-3,3.0874251E-3,8.882995E-3,2.4465306E-3,4.8878724E-3,3.5694644E-3,5.5839564E-3,7.3942137E-3,4.129813E-3,5.537819E-3,9.78103E-3,8.04256E-3,1.1455208E-2,1.4741821E-2,2.0936945E-2,1.5320432E-2,2.367822E-2,1.8835563E-2,7.386504E-4,9.131176E-4,1.2037484E-3,7.9808076E-4,1.0509192E-3,1.4140818E-3,2.0154708E-3,1.7020828E-3,8.244788E-5,1.9402582E-4,2.1288931E-4,3.724037E-4,3.3268193E-4,4.8743846E-4,1.7675787E-4,9.842352E-4,2.3803778E-3,3.1453774E-3,8.737029E-4,5.642375E-4,9.838816E-4,1.6096461E-3,1.0252754E-3,1.3336255E-3,1.5182947E-3,2.2426576E-3,2.0320436E-3,2.3833094E-3,1.186326E-3,1.8285414E-3,1.5332133E-3,2.022377E-3,2.7527714E-3,3.600946E-3,2.3461976E-3,3.8784565E-3,3.2049308E-3,4.3783286E-3,8.164962E-3,4.1696895E-3,5.2671293E-3,7.0767566E-3,6.0116667E-3,4.369093E-3,6.438496E-3,8.031267E-3,8.165634E-3,5.5052787E-3],"categories":[],"categories_nodes":[],"categories_segments":[],"categories_sizes":[],"default_left":[0,0,0,0,0,0,0,0,0,0,0,0,0,0,0,0,0,0,0,0,0,0,0,0,0,0,0,0,0,0,0,0,0,0,0,0,0,0,0,0,0,0,0,0,0,0,0,0,0,0,0,0,0,0,0,0,0,0,0,0,0,0,0,0,0,0,0,0,0,0,0,0,0,0,0,0,0,0,0,0,0,0,0,0,0,0,0,0,0,0,0,0,0,0,0,0,0,0,0,0,0,0,0,0,0],"id":2,"left_children":[1,3,5,7,9,11,13,-1,15,17,19,21,23,25,27,29,31,33,35,37,39,41,43,45,47,49,51,53,55,-1,-1,-1,-1,57,59,61,63,65,67,69,71,73,75,77,79,81,83,85,87,89,91,93,95,97,99,101,103,-1,-1,-1,-1,-1,-1,-1,-1,-1,-1,-1,-1,-1,-1,-1,-1,-1,-1,-1,-1,-1,-1,-1,-1,-1,-1,-1,-1,-1,-1,-1,-1,-1,-1,-1,-1,-1,-1,-1,-1,-1,-1,-1,-1,-1,-1,-1,-1],"loss_changes":[1.1344514E1,7.430732E-1,1.6768899E0,1.2961388E-2,1.4517423E-2,1.6848564E-1,3.1449795E-1,0E0,3.585832E-6,2.6512854E-3,3.1999946E-3,2.3490101E-2,2.1486998E-2,8.662748E-2,3.0934095E-2,1.0548174E-6,1.879991E-6,4.0806644E-4,6.275363E-4,6.04921E-4,1.3436247E-3,2.3313329E-2,6.9591403E-3,1.0729432E-2,6.7130327E-3,2.1354914E-2,2.828598E-2,2.2939086E-2,7.80946E-3,0E0,0E0,0E0,0E0,1.639789E-4,2.1386147E-4,1.01724174E-4,4.8803166E-5,1.6188098E-4,5.096989E-4,7.005185E-4,2.4539093E-4,7.8717247E-4,8.410573E-3,4.2777956E-3,1.8748939E-3,4.7491193E-3,3.4502745E-3,1.4688149E-3,8.095443E-3,4.2744637E-2,9.793758E-3,3.1261563E-2,3.4350693E-2,7.375717E-3,1.6801953E-2,4.6147406E-3,2.1819621E-3,0E0,0E0,0E0,0E0,0E0,0E0,0E0,0E0,0E0,0E0,0E0,0E0,0E0,0E0,0E0,0E0,0E0,0E0,0E0,0E0,0E0,0E0,0E0,0E0,0E0,0E0,0E0,0E0,0E0,0E0,0E0,0E0,0E0,0E0,0E0,0E0,0E0,0E0,0E0,0E0,0E0,0E0,0E0,0E0,0E0,0E0,0E0,0E0],"parents":[2147483647,0,0,1,1,2,2,3,3,4,4,5,5,6,6,8,8,9,9,10,10,11,11,12,12,13,13,14,14,15,15,16,16,17,17,18,18,19,19,20,20,21,21,22,22,23,23,24,24,25,25,26,26,27,27,28,28,33,33,34,34,35,35,36,36,37,37,38,38,39,39,40,40,41,41,42,42,43,43,44,44,45,45,46,46,47,47,48,48,49,49,50,50,51,51,52,52,53,53,54,54,55,55,56,56],"right_children":[2,4,6,8,10,12,14,-1,16,18,20,22,24,26,28,30,32,34,36,38,40,42,44,46,48,50,52,54,56,-1,-1,-1,-1,58,60,62,64,66,68,70,72,74,76,78,80,82,84,86,88,90,92,94,96,98,100,102,104,-1,-1,-1,-1,-1,-1,-1,-1,-1,-1,-1,-1,-1,-1,-1,-1,-1,-1,-1,-1,-1,-1,-1,-1,-1,-1,-1,-1,-1,-1,-1,-1,-1,-1,-1,-1,-1,-1,-1,-1,-1,-1,-1,-1,-1,-1,-1,-1],"split_conditions":[1.1431165E-2,8.888236E-3,2.4122443E-2,8.888236E-3,1E0,1.6753219E-2,3.858821E-2,-1.2002741E-3,8E0,9.813333E-3,1.035066E-2,1.4644243E-2,2.8E1,3.0876275E-2,4.9768012E-2,9.608722E-3,9.31138E-3,1.0592559E-2,1.0889477E-2,9.681475E-3,4E1,1E0,1.4444449E-2,1.2E1,3.1E1,3.0689685E-2,4.007181E-3,3.386423E-2,3.851666E-2,7.830166E-5,1.1651606E-4,1.3056348E-4,2.853458E-4,9.484655E-3,1.77E2,1.0550509E-2,1.05E2,7E0,8E0,8E0,1.49E2,1.1939424E-2,1.3137572E-2,1.2E1,3.7E1,2.1848217E-2,1.562765E-2,3.2686688E-2,2.058461E-2,2.4E1,2.1715602E-2,2.4004017E-3,3.1637682E-3,4.110474E-2,1.6E1,1.426632E-2,1.6E1,7.386504E-4,9.131176E-4,1.2037484E-3,7.9808076E-4,1.0509192E-3,1.4140818E-3,2.0154708E-3,1.7020828E-3,8.244788E-5,1.9402582E-4,2.1288931E-4,3.724037E-4,3.3268193E-4,4.8743846E-4,1.7675787E-4,9.842352E-4,2.3803778E-3,3.1453774E-3,8.737029E-4,5.642375E-4,9.838816E-4,1.6096461E-3,1.0252754E-3,1.3336255E-3,1.5182947E-3,2.2426576E-3,2.0320436E-3,2.3833094E-3,1.186326E-3,1.8285414E-3,1.5332133E-3,2.022377E-3,2.7527714E-3,3.600946E-3,2.3461976E-3,3.8784565E-3,3.2049308E-3,4.3783286E-3,8.164962E-3,4.1696895E-3,5.2671293E-3,7.0767566E-3,6.0116667E-3,4.369093E-3,6.438496E-3,8.031267E-3,8.165634E-3,5.5052787E-3],"split_indices":[35,35,35,13,3,35,35,0,3,35,35,35,3,35,35,13,24,13,13,35,3,3,24,3,3,13,37,24,13,0,0,0,0,35,0,12,0,3,3,3,0,24,24,3,3,13,13,13,35,3,37,40,26,35,3,37,3,0,0,0,0,0,0,0,0,0,0,0,0,0,0,0,0,0,0,0,0,0,0,0,0,0,0,0,0,0,0,0,0,0,0,0,0,0,0,0,0,0,0,0,0,0,0,0,0],"split_type":[0,0,0,0,0,0,0,0,0,0,0,0,0,0,0,0,0,0,0,0,0,0,0,0,0,0,0,0,0,0,0,0,0,0,0,0,0,0,0,0,0,0,0,0,0,0,0,0,0,0,0,0,0,0,0,0,0,0,0,0,0,0,0,0,0,0,0,0,0,0,0,0,0,0,0,0,0,0,0,0,0,0,0,0,0,0,0,0,0,0,0,0,0,0,0,0,0,0,0,0,0,0,0,0,0],"sum_hessian":[4.59045E5,3.0717E5,1.51875E5,2.78891E5,2.8279E4,8.7548E4,6.4327E4,2.78213E5,6.78E2,3.442E3,2.4837E4,5.2304E4,3.5244E4,5.7258E4,7.069E3,3.33E2,3.45E2,2.772E3,6.7E2,1.3108E4,1.1729E4,3.2507E4,1.9797E4,1.5098E4,2.0146E4,4.0995E4,1.6263E4,5.654E3,1.415E3,2.33E2,1E2,3.38E2,7E0,2.177E3,5.95E2,3.23E2,3.47E2,5.885E3,7.223E3,1.1218E4,5.11E2,5.72E2,3.1935E4,5.591E3,1.4206E4,4.838E3,1.026E4,4.33E3,1.5816E4,3.1869E4,9.126E3,1.2961E4,3.302E3,8.68E2,4.786E3,7.56E2,6.59E2,1.379E3,7.98E2,4.2E2,1.75E2,1.75E2,1.48E2,1.17E2,2.3E2,1.615E3,4.27E3,3.595E3,3.628E3,4.249E3,6.969E3,3.7E1,4.74E2,3.63E2,2.09E2,1.7512E4,1.4423E4,1.282E3,4.309E3,1.2111E4,2.095E3,3.793E3,1.045E3,4.827E3,5.433E3,3.978E3,3.52E2,1.1677E4,4.139E3,2.5052E4,6.817E3,8.732E3,3.94E2,1.0406E4,2.555E3,2.07E2,3.095E3,3.85E2,4.83E2,6.58E2,4.128E3,4.45E2,3.11E2,3.3E1,6.26E2],"tree_param":{"num_deleted":"0","num_feature":"43","num_nodes":"105","size_leaf_vector":"1"}},{"base_weights":[6.675518E-7,-2.3741738E-3,5.1175887E-3,-2.793192E-3,9.993762E-4,3.183661E-3,7.812914E-3,-8.401931E-4,2.6424837E-4,2.452759E-3,8.297467E-4,2.4723625E-3,4.558021E-3,7.344603E-3,1.31025035E-2,6.323931E-5,3.1508156E-4,2.057396E-3,4.0932316E-3,5.87799E-4,1.1321608E-3,1.9972117E-3,3.0117482E-3,4.906713E-3,3.0201303E-3,6.8042176E-3,8.936258E-3,1.699922E-2,1.2349323E-2,8.515837E-5,1.3775028E-4,1.625305E-3,2.2981942E-3,4.592634E-3,3.2472825E-3,3.3360755E-4,7.6505425E-4,1.3670799E-3,4.6275445E-4,6.8410994E-3,1.9311559E-3,3.6391178E-3,2.713554E-3,5.201929E-3,3.3955614E-3,3.232667E-3,1.1917775E-3,6.8917247E-3,7.683085E-4,8.22425E-3,1.05694905E-2,1.8706959E-2,1.337305E-2,1.1164055E-2,1.4488095E-2,3.6865813E-4,5.459385E-4,5.4640364E-4,7.88919E-4,1.205071E-3,1.6927745E-3,2.0268599E-4,1.0133353E-3,-2.5047353E-4,1.10987494E-4,2.1059962E-4,3.331998E-4,2.7682775E-4,4.7671187E-4,-1.0150077E-4,2.5115834E-4,1.8921307E-3,2.5002419E-3,2.551652E-4,6.419935E-4,5.6336605E-4,1.2180879E-3,1.0161996E-3,7.673635E-4,1.3643419E-3,1.6684812E-3,1.5648227E-3,9.252872E-4,1.3268193E-3,8.971659E-4,4.4035297E-4,-5.0739032E-5,2.1725404E-3,1.7809971E-3,1.2585195E-4,4.1993026E-4,2.2493615E-3,3.2101395E-3,3.420136E-3,2.7000713E-3,5.824741E-3,3.7797021E-3,4.14844E-3,1.1093344E-3,3.0034904E-3,3.998926E-3,4.816204E-3,3.6315955E-3],"categories":[],"categories_nodes":[],"categories_segments":[],"categories_sizes":[],"default_left":[0,0,0,0,0,0,0,0,0,0,0,0,0,0,0,0,0,0,0,0,0,0,0,0,0,0,0,0,0,0,0,0,0,0,0,0,0,0,0,0,0,0,0,0,0,0,0,0,0,0,0,0,0,0,0,0,0,0,0,0,0,0,0,0,0,0,0,0,0,0,0,0,0,0,0,0,0,0,0,0,0,0,0,0,0,0,0,0,0,0,0,0,0,0,0,0,0,0,0,0,0,0,0],"id":3,"left_children":[1,3,5,7,9,11,13,-1,15,17,19,21,23,25,27,-1,29,31,33,35,37,39,41,43,45,47,49,51,53,-1,-1,55,57,59,61,63,65,67,69,71,73,75,77,79,81,83,85,87,89,91,93,95,97,99,101,-1,-1,-1,-1,-1,-1,-1,-1,-1,-1,-1,-1,-1,-1,-1,-1,-1,-1,-1,-1,-1,-1,-1,-1,-1,-1,-1,-1,-1,-1,-1,-1,-1,-1,-1,-1,-1,-1,-1,-1,-1,-1,-1,-1,-1,-1,-1,-1],"loss_changes":[5.5782824E0,4.4320488E-1,7.5848126E-1,6.355047E-3,8.538239E-3,8.281529E-2,1.5049124E-1,0E0,1.7784769E-6,2.339445E-3,2.2691656E-3,1.4303416E-2,1.5479565E-2,4.7974348E-2,1.4297485E-2,0E0,1.4261132E-6,2.999762E-4,2.816599E-4,7.7634305E-4,2.1674614E-3,9.48564E-3,4.88165E-3,1.0489225E-2,2.0723976E-3,2.2018433E-2,1.6370177E-2,4.6914667E-3,1.0348499E-2,0E0,0E0,7.85694E-5,2.9115845E-4,2.427036E-4,8.6318E-5,3.0117022E-4,2.2050366E-4,1.0049641E-3,1.0750408E-3,2.6554987E-4,6.6073686E-3,6.2389597E-3,1.8507391E-3,4.6097636E-3,2.1667406E-3,1.3657734E-3,2.0988879E-4,1.36989355E-2,1.3090455E-4,1.7654717E-2,5.495429E-3,2.0933598E-3,1.0892525E-3,6.5353215E-3,5.3091943E-3,0E0,0E0,0E0,0E0,0E0,0E0,0E0,0E0,0E0,0E0,0E0,0E0,0E0,0E0,0E0,0E0,0E0,0E0,0E0,0E0,0E0,0E0,0E0,0E0,0E0,0E0,0E0,0E0,0E0,0E0,0E0,0E0,0E0,0E0,0E0,0E0,0E0,0E0,0E0,0E0,0E0,0E0,0E0,0E0,0E0,0E0,0E0,0E0],"parents":[2147483647,0,0,1,1,2,2,3,3,4,4,5,5,6,6,8,8,9,9,10,10,11,11,12,12,13,13,14,14,16,16,17,17,18,18,19,19,20,20,21,21,22,22,23,23,24,24,25,25,26,26,27,27,28,28,31,31,32,32,33,33,34,34,35,35,36,36,37,37,38,38,39,39,40,40,41,41,42,42,43,43,44,44,45,45,46,46,47,47,48,48,49,49,50,50,51,51,52,52,53,53,54,54],"right_children":[2,4,6,8,10,12,14,-1,16,18,20,22,24,26,28,-1,30,32,34,36,38,40,42,44,46,48,50,52,54,-1,-1,56,58,60,62,64,66,68,70,72,74,76,78,80,82,84,86,88,90,92,94,96,98,100,102,-1,-1,-1,-1,-1,-1,-1,-1,-1,-1,-1,-1,-1,-1,-1,-1,-1,-1,-1,-1,-1,-1,-1,-1,-1,-1,-1,-1,-1,-1,-1,-1,-1,-1,-1,-1,-1,-1,-1,-1,-1,-1,-1,-1,-1,-1,-1,-1],"split_conditions":[1.2112169E-2,8.888236E-3,2.4818314E-2,8.888236E-3,1E0,1.8507443E-2,4.110474E-2,-8.401931E-4,8E0,9.934903E-3,1E1,1.4962931E-2,4.3E1,3.2543115E-2,3.650552E-2,6.323931E-5,9.162772E-3,2.19E2,1.38E2,1.0545839E-2,1.2313459E-2,1E0,1.4475801E-2,2.6202181E-2,2.2076124E-2,4.3E1,1.1129039E-3,2.35E2,1.2218256E-2,8.515837E-5,1.3775028E-4,9.443284E-3,9.347988E-3,1.1034761E-2,9.34404E-3,3E0,8E0,1.0472258E-2,3.7E1,1.2476493E-2,3E0,1.1E1,2.1E1,2.0783558E-2,2.2E1,1.6237514E-2,2.4122443E-2,2.6E1,2.9315313E-2,1.1280663E-3,3.3420302E-2,2.6E1,1.709666E-3,1.250014E-2,4.3483965E-2,3.6865813E-4,5.459385E-4,5.4640364E-4,7.88919E-4,1.205071E-3,1.6927745E-3,2.0268599E-4,1.0133353E-3,-2.5047353E-4,1.10987494E-4,2.1059962E-4,3.331998E-4,2.7682775E-4,4.7671187E-4,-1.0150077E-4,2.5115834E-4,1.8921307E-3,2.5002419E-3,2.551652E-4,6.419935E-4,5.6336605E-4,1.2180879E-3,1.0161996E-3,7.673635E-4,1.3643419E-3,1.6684812E-3,1.5648227E-3,9.252872E-4,1.3268193E-3,8.971659E-4,4.4035297E-4,-5.0739032E-5,2.1725404E-3,1.7809971E-3,1.2585195E-4,4.1993026E-4,2.2493615E-3,3.2101395E-3,3.420136E-3,2.7000713E-3,5.824741E-3,3.7797021E-3,4.14844E-3,1.1093344E-3,3.0034904E-3,3.998926E-3,4.816204E-3,3.6315955E-3],"split_indices":[35,35,35,13,3,35,35,0,3,35,3,35,3,35,24,0,11,1,0,13,13,3,13,24,35,3,37,1,37,0,0,35,35,35,24,3,3,35,3,24,3,3,3,35,3,24,35,3,35,40,22,3,4,40,12,0,0,0,0,0,0,0,0,0,0,0,0,0,0,0,0,0,0,0,0,0,0,0,0,0,0,0,0,0,0,0,0,0,0,0,0,0,0,0,0,0,0,0,0,0,0,0,0],"split_type":[0,0,0,0,0,0,0,0,0,0,0,0,0,0,0,0,0,0,0,0,0,0,0,0,0,0,0,0,0,0,0,0,0,0,0,0,0,0,0,0,0,0,0,0,0,0,0,0,0,0,0,0,0,0,0,0,0,0,0,0,0,0,0,0,0,0,0,0,0,0,0,0,0,0,0,0,0,0,0,0,0,0,0,0,0,0,0,0,0,0,0,0,0,0,0,0,0,0,0,0,0,0,0],"sum_hessian":[4.59045E5,3.13531E5,1.45514E5,2.78891E5,3.464E4,8.4725E4,6.0789E4,2.78213E5,6.78E2,3.619E3,3.1021E4,5.5832E4,2.8893E4,5.5847E4,4.942E3,3.33E2,3.45E2,2.918E3,7.01E2,1.7235E4,1.3786E4,2.9686E4,2.6146E4,2.3551E4,5.342E3,4.1696E4,1.4151E4,7.97E2,4.145E3,2.86E2,5.9E1,1.047E3,1.871E3,4.38E2,2.63E2,7.082E3,1.0153E4,1.0204E4,3.582E3,3.98E2,2.9288E4,8.42E3,1.7726E4,1.97E4,3.851E3,4.785E3,5.57E2,4.11E4,5.96E2,9.859E3,4.292E3,5.39E2,2.58E2,2.671E3,1.474E3,3.47E2,7E2,7.7E2,1.101E3,2.86E2,1.52E2,1.3E1,2.5E2,2.13E2,6.869E3,8.589E3,1.564E3,3.401E3,6.803E3,1.141E3,2.441E3,2.97E2,1.01E2,4.744E3,2.4544E4,1.626E3,6.794E3,3.323E3,1.4403E4,6.994E3,1.2706E4,5.6E2,3.291E3,8.06E2,3.979E3,4.63E2,9.4E1,3.0071E4,1.1029E4,3.85E2,2.11E2,7.626E3,2.233E3,2.802E3,1.49E3,4.81E2,5.8E1,2.46E2,1.2E1,1.747E3,9.24E2,8.86E2,5.88E2],"tree_param":{"num_deleted":"0","num_feature":"43","num_nodes":"103","size_leaf_vector":"1"}},{"base_weights":[6.207959E-7,-1.5754737E-3,3.7869741E-3,-1.9554656E-3,7.670725E-4,2.5604304E-3,5.7675214E-3,-5.881361E-4,1.0330724E-4,1.8612305E-3,6.659446E-4,1.9310468E-3,3.3859236E-3,5.434732E-3,9.475733E-3,8.094111E-5,7.3381944E-4,1.5663392E-3,3.7891841E-3,5.978286E-4,2.0023894E-3,2.3280997E-3,1.6699426E-3,3.5856613E-3,2.0218468E-3,5.0324877E-3,6.882667E-3,1.2317038E-2,8.9203045E-3,1.570143E-4,4.452488E-5,1.7037132E-4,4.13982E-4,1.3586334E-3,2.4762184E-3,3.4021328E-3,5.0090738E-3,3.9393033E-4,8.326692E-4,1.3187805E-3,2.2561476E-3,1.2577986E-3,2.8462103E-3,1.0520401E-3,1.9696865E-3,3.5193362E-3,6.229841E-3,2.2260882E-3,7.595839E-4,4.696312E-3,6.8410174E-3,5.121296E-3,7.3414245E-3,1.0000389E-2,1.3784524E-2,8.29184E-3,1.1188013E-2,4.2990934E-5,2.4922276E-4,3.2607906E-5,-1.1518659E-5,3.177569E-4,4.50491E-4,8.1806036E-4,3.9718483E-4,8.9075277E-4,1.2836531E-3,1.2268012E-3,1.7026773E-3,6.557934E-5,2.1238094E-4,3.166487E-4,8.20981E-6,4.5197085E-4,-1.3693115E-4,5.546789E-4,8.6671626E-4,1.6116386E-3,3.368686E-4,1.0079487E-3,7.048473E-4,5.1583623E-4,1.8950667E-4,5.391372E-4,7.6769834E-4,1.1282599E-3,8.6761155E-4,1.9967973E-3,1.3010913E-3,7.751882E-4,5.267284E-4,3.0853163E-4,1.8694842E-5,1.5166465E-3,9.252243E-4,1.215561E-3,2.1878905E-3,2.6495487E-3,1.4304011E-3,2.8010847E-3,1.79602E-3,3.280974E-3,2.2042973E-3,4.3330886E-3,2.6158758E-3,2.351464E-3,3.1489225E-3,3.97517E-3,2.5803838E-3],"categories":[],"categories_nodes":[],"categories_segments":[],"categories_sizes":[],"default_left":[0,0,0,0,0,0,0,0,0,0,0,0,0,0,0,0,0,0,0,0,0,0,0,0,0,0,0,0,0,0,0,0,0,0,0,0,0,0,0,0,0,0,0,0,0,0,0,0,0,0,0,0,0,0,0,0,0,0,0,0,0,0,0,0,0,0,0,0,0,0,0,0,0,0,0,0,0,0,0,0,0,0,0,0,0,0,0,0,0,0,0,0,0,0,0,0,0,0,0,0,0,0,0,0,0,0,0,0,0],"id":4,"left_children":[1,3,5,7,9,11,13,-1,15,17,19,21,23,25,27,29,31,33,35,37,39,41,43,45,47,49,51,53,55,57,59,-1,-1,61,63,65,67,69,71,73,75,77,79,81,83,85,87,89,91,93,95,97,99,101,103,105,107,-1,-1,-1,-1,-1,-1,-1,-1,-1,-1,-1,-1,-1,-1,-1,-1,-1,-1,-1,-1,-1,-1,-1,-1,-1,-1,-1,-1,-1,-1,-1,-1,-1,-1,-1,-1,-1,-1,-1,-1,-1,-1,-1,-1,-1,-1,-1,-1,-1,-1,-1,-1],"loss_changes":[2.739432E0,2.8852278E-1,3.2773662E-1,2.8641224E-3,5.0045606E-3,4.3283522E-2,6.36245E-2,0E0,9.459538E-6,2.1698559E-3,3.7688557E-3,4.8976243E-3,9.8131895E-3,2.754426E-2,6.594062E-3,1.8020141E-6,1.6819522E-6,6.242627E-4,2.2234349E-4,1.8866193E-3,3.453549E-4,1.0396153E-2,5.2812994E-3,5.4917037E-3,1.1857655E-3,2.2500336E-2,8.278757E-3,2.2147E-3,4.9766004E-3,1.8300889E-6,2.3613093E-6,0E0,0E0,1.1428399E-4,1.7429981E-4,1.3457146E-4,5.035312E-5,1.1612407E-3,3.2861065E-3,1.827057E-4,3.717183E-4,3.3902405E-3,3.2158569E-3,2.6136246E-3,1.94861E-3,4.6362877E-3,5.9063546E-4,6.626714E-4,1.2047516E-4,1.8083394E-2,7.290542E-3,2.7501099E-3,2.201128E-2,5.951449E-4,1.2794882E-3,2.7068704E-3,3.9888546E-3,0E0,0E0,0E0,0E0,0E0,0E0,0E0,0E0,0E0,0E0,0E0,0E0,0E0,0E0,0E0,0E0,0E0,0E0,0E0,0E0,0E0,0E0,0E0,0E0,0E0,0E0,0E0,0E0,0E0,0E0,0E0,0E0,0E0,0E0,0E0,0E0,0E0,0E0,0E0,0E0,0E0,0E0,0E0,0E0,0E0,0E0,0E0,0E0,0E0,0E0,0E0,0E0],"parents":[2147483647,0,0,1,1,2,2,3,3,4,4,5,5,6,6,8,8,9,9,10,10,11,11,12,12,13,13,14,14,15,15,16,16,17,17,18,18,19,19,20,20,21,21,22,22,23,23,24,24,25,25,26,26,27,27,28,28,29,29,30,30,33,33,34,34,35,35,36,36,37,37,38,38,39,39,40,40,41,41,42,42,43,43,44,44,45,45,46,46,47,47,48,48,49,49,50,50,51,51,52,52,53,53,54,54,55,55,56,56],"right_children":[2,4,6,8,10,12,14,-1,16,18,20,22,24,26,28,30,32,34,36,38,40,42,44,46,48,50,52,54,56,58,60,-1,-1,62,64,66,68,70,72,74,76,78,80,82,84,86,88,90,92,94,96,98,100,102,104,106,108,-1,-1,-1,-1,-1,-1,-1,-1,-1,-1,-1,-1,-1,-1,-1,-1,-1,-1,-1,-1,-1,-1,-1,-1,-1,-1,-1,-1,-1,-1,-1,-1,-1,-1,-1,-1,-1,-1,-1,-1,-1,-1,-1,-1,-1,-1,-1,-1,-1,-1,-1,-1],"split_conditions":[1.3179222E-2,8.888236E-3,2.5729677E-2,8.888236E-3,1E0,1.884452E-2,4.2153712E-2,-5.881361E-4,1.1E1,1.0840617E-2,4E1,1.4103596E-2,4.3E1,5.412338E-4,3.7485722E-2,1.78E2,1.89E2,1.0781794E-2,3.289947E-4,1E1,2.57E2,1.2E1,1.5086283E-2,4.2E1,2.2076124E-2,6.1211624E-4,1.2E1,1.18E2,2.234113E-2,9.216357E-3,9.162673E-3,1.7037132E-4,4.13982E-4,2.16E2,1.71E2,4.1108244E-4,1.0998412E-2,1.1897648E-2,1.3660398E-2,4.3E1,1.2025976E-2,1E0,2.8E1,3.3E1,3.7E1,2.6E1,1.81E2,1.43E2,2.4122443E-2,2.8E1,8E0,2E0,2.6E1,2.62E2,2.6E1,5.4366305E-2,4.708145E-2,4.2990934E-5,2.4922276E-4,3.2607906E-5,-1.1518659E-5,3.177569E-4,4.50491E-4,8.1806036E-4,3.9718483E-4,8.9075277E-4,1.2836531E-3,1.2268012E-3,1.7026773E-3,6.557934E-5,2.1238094E-4,3.166487E-4,8.20981E-6,4.5197085E-4,-1.3693115E-4,5.546789E-4,8.6671626E-4,1.6116386E-3,3.368686E-4,1.0079487E-3,7.048473E-4,5.1583623E-4,1.8950667E-4,5.391372E-4,7.6769834E-4,1.1282599E-3,8.6761155E-4,1.9967973E-3,1.3010913E-3,7.751882E-4,5.267284E-4,3.0853163E-4,1.8694842E-5,1.5166465E-3,9.252243E-4,1.215561E-3,2.1878905E-3,2.6495487E-3,1.4304011E-3,2.8010847E-3,1.79602E-3,3.280974E-3,2.2042973E-3,4.3330886E-3,2.6158758E-3,2.351464E-3,3.1489225E-3,3.97517E-3,2.5803838E-3],"split_indices":[35,13,35,35,3,35,35,0,3,35,3,13,3,37,24,0,0,13,15,3,1,3,35,3,35,40,3,0,37,20,35,0,0,1,0,18,13,13,13,3,32,3,3,3,3,3,0,0,35,3,3,3,3,1,3,31,10,0,0,0,0,0,0,0,0,0,0,0,0,0,0,0,0,0,0,0,0,0,0,0,0,0,0,0,0,0,0,0,0,0,0,0,0,0,0,0,0,0,0,0,0,0,0,0,0,0,0,0,0],"split_type":[0,0,0,0,0,0,0,0,0,0,0,0,0,0,0,0,0,0,0,0,0,0,0,0,0,0,0,0,0,0,0,0,0,0,0,0,0,0,0,0,0,0,0,0,0,0,0,0,0,0,0,0,0,0,0,0,0,0,0,0,0,0,0,0,0,0,0,0,0,0,0,0,0,0,0,0,0,0,0,0,0,0,0,0,0,0,0,0,0,0,0,0,0,0,0,0,0,0,0,0,0,0,0,0,0,0,0,0,0],"sum_hessian":[4.59045E5,3.24126E5,1.34919E5,2.78887E5,4.5239E4,8.3321E4,5.1598E4,2.78213E5,6.74E2,3.826E3,4.1413E4,4.7278E4,3.6043E4,4.7351E4,4.247E3,6.52E2,2.2E1,3.32E3,5.06E2,3.9406E4,2.007E3,1.8753E4,2.8525E4,3.1438E4,4.605E3,3.706E4,1.0291E4,6.91E2,3.556E3,2.1E2,4.42E2,1.9E1,3E0,2.705E3,6.15E2,3.87E2,1.19E2,2.1094E4,1.8312E4,5.45E2,1.462E3,6.118E3,1.2635E4,9.319E3,1.9206E4,3.0671E4,7.67E2,3.963E3,6.42E2,3.1254E4,5.806E3,2.129E3,8.162E3,2.71E2,4.2E2,2.788E3,7.68E2,2.07E2,3E0,2.49E2,1.93E2,8.77E2,1.828E3,5.04E2,1.11E2,2.62E2,1.25E2,5.3E1,6.6E1,1.3537E4,7.557E3,1.4343E4,3.969E3,4.93E2,5.2E1,8.92E2,5.7E2,1.93E2,5.925E3,6.209E3,6.426E3,3.6E3,5.719E3,1.4859E4,4.347E3,2.2141E4,8.53E3,6.24E2,1.43E2,2.248E3,1.715E3,4.63E2,1.79E2,2.5558E4,5.696E3,8.11E2,4.995E3,1.83E2,1.946E3,3.298E3,4.864E3,1.98E2,7.3E1,3.7E2,5E1,2.316E3,4.72E2,4.25E2,3.43E2],"tree_param":{"num_deleted":"0","num_feature":"43","num_nodes":"109","size_leaf_vector":"1"}},{"base_weights":[5.6821085E-7,-1.1449846E-3,2.558873E-3,-1.368825E-3,4.8997137E-4,1.6840858E-3,3.995821E-3,-4.1169595E-4,7.364512E-5,1.2397728E-3,4.0962672E-4,1.181784E-3,2.2120795E-3,3.5054518E-3,5.3698146E-3,5.713876E-5,5.390801E-4,9.347E-4,1.9604822E-3,3.7506188E-4,1.2875664E-3,1.52822E-3,9.875043E-4,2.3521006E-3,1.406281E-3,3.9125457E-3,2.7410274E-3,4.8559154E-3,6.9062184E-3,9.6218355E-5,-1.1778185E-6,1.2181544E-4,3.20836E-4,6.5250375E-4,1.0919119E-3,1.4712422E-3,2.461472E-3,-7.3666504E-4,3.9705192E-4,1.4750785E-3,9.873266E-5,1.0349848E-3,1.8207805E-3,1.5843399E-4,1.1995158E-3,2.2134467E-3,3.4410951E-3,2.013016E-3,1.0447736E-3,3.1396246E-3,6.940363E-3,2.04711E-3,4.1732145E-3,6.4469217E-3,4.17909E-3,7.41898E-3,4.7935015E-3,2.7097483E-5,1.9314763E-4,2.5765667E-5,-1.5276391E-5,2.4604262E-4,1.3277889E-4,2.921008E-4,4.3219855E-4,7.3400035E-5,4.7041228E-4,6.847568E-4,1.1421555E-3,1.8067895E-4,-2.2697712E-4,3.8056176E-5,1.4714737E-4,3.7712554E-4,5.4860185E-4,-2.368053E-4,4.1972753E-4,1.0438899E-3,2.689646E-4,6.7663885E-4,4.3042423E-4,-4.7264575E-6,5.5309595E-4,3.0465508E-4,4.5814368E-4,7.518781E-4,4.4259283E-4,8.571491E-4,1.2002939E-3,7.94177E-4,4.983145E-4,4.3422804E-4,2.4888114E-4,1.2748078E-3,7.495741E-4,1.8402532E-3,4.483228E-3,8.127257E-4,4.165188E-4,1.4881815E-3,-1.7172344E-4,1.3317887E-3,2.1387902E-3,1.1441015E-3,2.0594024E-3,1.9923607E-3,2.706573E-3,-9.8025936E-5,2.3195138E-3],"categories":[],"categories_nodes":[],"categories_segments":[],"categories_sizes":[],"default_left":[0,0,0,0,0,0,0,0,0,0,0,0,0,0,0,0,0,0,0,0,0,0,0,0,0,0,0,0,0,0,0,0,0,0,0,0,0,0,0,0,0,0,0,0,0,0,0,0,0,0,0,0,0,0,0,0,0,0,0,0,0,0,0,0,0,0,0,0,0,0,0,0,0,0,0,0,0,0,0,0,0,0,0,0,0,0,0,0,0,0,0,0,0,0,0,0,0,0,0,0,0,0,0,0,0,0,0,0,0],"id":5,"left_children":[1,3,5,7,9,11,13,-1,15,17,19,21,23,25,27,29,31,33,35,37,39,41,43,45,47,49,51,53,55,57,59,-1,-1,61,63,65,67,69,71,73,75,77,79,81,83,85,87,89,91,93,95,97,99,101,103,105,107,-1,-1,-1,-1,-1,-1,-1,-1,-1,-1,-1,-1,-1,-1,-1,-1,-1,-1,-1,-1,-1,-1,-1,-1,-1,-1,-1,-1,-1,-1,-1,-1,-1,-1,-1,-1,-1,-1,-1,-1,-1,-1,-1,-1,-1,-1,-1,-1,-1,-1,-1,-1],"loss_changes":[1.3453169E0,1.1603847E-1,1.7846173E-1,1.4059544E-3,2.2997307E-3,2.3403138E-2,3.6179066E-2,0E0,5.1549764E-6,8.105836E-4,1.0461141E-3,3.0426532E-3,4.8511624E-3,1.2311578E-2,1.11221075E-2,1.4882928E-6,1.1885081E-6,1.1454662E-4,2.6550284E-4,8.1153866E-4,2.9098894E-4,2.3428611E-3,5.0938725E-3,5.5268854E-3,1.3955263E-3,6.043893E-2,1.3669394E-2,1.1377811E-2,3.798306E-3,1.2037117E-6,1.1433831E-6,0E0,0E0,3.2432697E-5,6.733951E-5,6.586814E-5,1.2159068E-4,1.7636718E-5,8.2150334E-4,8.464861E-5,2.0781849E-4,2.0450456E-3,1.7080083E-3,1.7328332E-3,1.3897307E-3,7.0244223E-3,1.3414174E-3,5.2644964E-4,3.4492137E-4,1.4631897E-2,3.3803254E-2,4.039757E-3,1.6784176E-2,4.2960495E-3,7.26828E-3,3.4882724E-3,1.044333E-2,0E0,0E0,0E0,0E0,0E0,0E0,0E0,0E0,0E0,0E0,0E0,0E0,0E0,0E0,0E0,0E0,0E0,0E0,0E0,0E0,0E0,0E0,0E0,0E0,0E0,0E0,0E0,0E0,0E0,0E0,0E0,0E0,0E0,0E0,0E0,0E0,0E0,0E0,0E0,0E0,0E0,0E0,0E0,0E0,0E0,0E0,0E0,0E0,0E0,0E0,0E0,0E0],"parents":[2147483647,0,0,1,1,2,2,3,3,4,4,5,5,6,6,8,8,9,9,10,10,11,11,12,12,13,13,14,14,15,15,16,16,17,17,18,18,19,19,20,20,21,21,22,22,23,23,24,24,25,25,26,26,27,27,28,28,29,29,30,30,33,33,34,34,35,35,36,36,37,37,38,38,39,39,40,40,41,41,42,42,43,43,44,44,45,45,46,46,47,47,48,48,49,49,50,50,51,51,52,52,53,53,54,54,55,55,56,56],"right_children":[2,4,6,8,10,12,14,-1,16,18,20,22,24,26,28,30,32,34,36,38,40,42,44,46,48,50,52,54,56,58,60,-1,-1,62,64,66,68,70,72,74,76,78,80,82,84,86,88,90,92,94,96,98,100,102,104,106,108,-1,-1,-1,-1,-1,-1,-1,-1,-1,-1,-1,-1,-1,-1,-1,-1,-1,-1,-1,-1,-1,-1,-1,-1,-1,-1,-1,-1,-1,-1,-1,-1,-1,-1,-1,-1,-1,-1,-1,-1,-1,-1,-1,-1,-1,-1,-1,-1,-1,-1,-1,-1],"split_conditions":[1.2440405E-2,8.888236E-3,2.5531998E-2,8.888236E-3,1E0,1.7225428E-2,3.4384135E-2,-4.1169595E-4,1.1E1,9.681475E-3,4E1,1.3706928E-2,4.3E1,2.6E1,4.344152E-2,2.83E2,1.89E2,1.03413835E-2,1.0889477E-2,3E0,4.2E1,1.2E1,1.41095035E-2,3.7E1,2.24E2,2.4E1,3.2E1,3.313923E-2,2.9E1,9.58477E-3,1E1,1.2181544E-4,3.20836E-4,1.51E2,9.458885E-3,9.404926E-3,1.1113535E-2,2E0,9.934903E-3,1.0343247E-2,4.4E1,1E0,1.6E1,3.7E1,1.5918612E-2,2.6E1,1.9665277E-2,1.6959779E-2,1.45E2,1.9E1,2.7558802E-2,2.8E1,4.3E1,2.18E2,2.6735E-2,1.3469368E-2,3E1,2.7097483E-5,1.9314763E-4,2.5765667E-5,-1.5276391E-5,2.4604262E-4,1.3277889E-4,2.921008E-4,4.3219855E-4,7.3400035E-5,4.7041228E-4,6.847568E-4,1.1421555E-3,1.8067895E-4,-2.2697712E-4,3.8056176E-5,1.4714737E-4,3.7712554E-4,5.4860185E-4,-2.368053E-4,4.1972753E-4,1.0438899E-3,2.689646E-4,6.7663885E-4,4.3042423E-4,-4.7264575E-6,5.5309595E-4,3.0465508E-4,4.5814368E-4,7.518781E-4,4.4259283E-4,8.571491E-4,1.2002939E-3,7.94177E-4,4.983145E-4,4.3422804E-4,2.4888114E-4,1.2748078E-3,7.495741E-4,1.8402532E-3,4.483228E-3,8.127257E-4,4.165188E-4,1.4881815E-3,-1.7172344E-4,1.3317887E-3,2.1387902E-3,1.1441015E-3,2.0594024E-3,1.9923607E-3,2.706573E-3,-9.8025936E-5,2.3195138E-3],"split_indices":[35,13,35,35,3,35,35,0,3,35,3,24,3,3,35,1,0,13,13,3,3,3,35,3,1,3,3,24,3,33,3,0,0,0,24,24,22,3,35,11,3,3,3,3,35,3,35,24,0,3,24,3,3,1,37,39,3,0,0,0,0,0,0,0,0,0,0,0,0,0,0,0,0,0,0,0,0,0,0,0,0,0,0,0,0,0,0,0,0,0,0,0,0,0,0,0,0,0,0,0,0,0,0,0,0,0,0,0,0],"split_type":[0,0,0,0,0,0,0,0,0,0,0,0,0,0,0,0,0,0,0,0,0,0,0,0,0,0,0,0,0,0,0,0,0,0,0,0,0,0,0,0,0,0,0,0,0,0,0,0,0,0,0,0,0,0,0,0,0,0,0,0,0,0,0,0,0,0,0,0,0,0,0,0,0,0,0,0,0,0,0,0,0,0,0,0,0,0,0,0,0,0,0,0,0,0,0,0,0,0,0,0,0,0,0,0,0,0,0,0,0],"sum_hessian":[4.59045E5,3.17069E5,1.41976E5,2.78887E5,3.8182E4,8.8252E4,5.3724E4,2.78213E5,6.74E2,3.694E3,3.4488E4,4.5228E4,4.3024E4,3.9596E4,1.4128E4,6.52E2,2.2E1,2.597E3,1.097E3,3.3183E4,1.305E3,1.6248E4,2.898E4,3.6653E4,6.371E3,2.5834E4,1.3762E4,1.059E4,3.538E3,3.9E2,2.62E2,1.9E1,3E0,9.31E2,1.666E3,5.57E2,5.4E2,6.43E2,3.254E4,1.127E3,1.78E2,6.051E3,1.0197E4,5.902E3,2.3078E4,3.2516E4,4.137E3,2.377E3,3.994E3,2.0582E4,5.252E3,9.272E3,4.49E3,3.158E3,7.432E3,2.845E3,6.93E2,3.87E2,3E0,9.5E1,1.67E2,5.16E2,4.15E2,1.247E3,4.19E2,4.1E1,5.16E2,4.79E2,6.1E1,9E0,6.34E2,8.362E3,2.4178E4,7E2,4.27E2,1.06E2,7.2E1,3.23E2,5.728E3,4.794E3,5.403E3,5.35E3,5.52E2,1.4781E4,8.297E3,2.3279E4,9.237E3,2.028E3,2.109E3,8.46E2,1.531E3,1.389E3,2.605E3,7.534E3,1.3048E4,4.773E3,4.79E2,4.623E3,4.649E3,3.851E3,6.39E2,8.03E2,2.355E3,6.544E3,8.88E2,1.919E3,9.26E2,2.53E2,4.4E2],"tree_param":{"num_deleted":"0","num_feature":"43","num_nodes":"109","size_leaf_vector":"1"}},{"base_weights":[4.8150156E-7,-7.6553196E-4,1.8825502E-3,-9.581765E-4,3.686436E-4,1.412549E-3,3.1440319E-3,-2.881876E-4,5.2549018E-5,8.849007E-4,3.1621102E-4,1.0532938E-3,1.9314667E-3,2.7974597E-3,4.2456333E-3,1.2105087E-5,1.1898062E-4,7.033668E-4,1.650801E-3,-4.828071E-4,3.514105E-4,8.541659E-4,1.2480513E-3,2.2085956E-3,1.3423499E-3,2.4282609E-3,4.184834E-3,7.505477E-3,3.8789103E-3,5.9196865E-4,9.543916E-4,2.2952831E-3,1.3006466E-3,-4.186558E-4,-7.176661E-4,3.1434794E-4,9.981873E-4,1.2372386E-3,6.20153E-4,5.678661E-4,1.3237218E-3,2.055546E-3,2.8388638E-3,2.5640675E-3,1.2110558E-3,3.313194E-3,1.8519923E-3,1.1691676E-2,3.8592876E-3,5.135455E-3,9.691104E-3,1.3191351E-3,4.2072576E-3,1.3351726E-4,2.1366752E-4,2.3117424E-5,3.1631964E-4,6.028331E-4,1.0932819E-3,2.6826726E-4,5.33568E-4,-1.601297E-4,-3.613674E-5,-1.9250951E-4,-3.0200492E-4,3.7391866E-5,1.207794E-4,1.8075181E-4,3.897238E-4,2.7162462E-4,4.5978543E-4,2.5626353E-4,1.210083E-4,3.5373037E-4,3.1784046E-5,5.501385E-4,3.5208723E-4,6.305219E-4,1.0923693E-4,6.061623E-4,1.1107497E-3,5.8381935E-5,9.217361E-4,1.1774933E-4,4.230142E-4,6.0139823E-4,1.2003358E-3,1.3170694E-3,4.6764108E-4,3.945856E-3,1.0850109E-3,4.5648727E-4,1.2425099E-3,2.558733E-3,1.201764E-3,3.796213E-3,2.1868055E-3,1.8206009E-3,2.952107E-4,1.3964474E-3,9.737118E-4],"categories":[],"categories_nodes":[],"categories_segments":[],"categories_sizes":[],"default_left":[0,0,0,0,0,0,0,0,0,0,0,0,0,0,0,0,0,0,0,0,0,0,0,0,0,0,0,0,0,0,0,0,0,0,0,0,0,0,0,0,0,0,0,0,0,0,0,0,0,0,0,0,0,0,0,0,0,0,0,0,0,0,0,0,0,0,0,0,0,0,0,0,0,0,0,0,0,0,0,0,0,0,0,0,0,0,0,0,0,0,0,0,0,0,0,0,0,0,0,0,0],"id":6,"left_children":[1,3,5,7,9,11,13,-1,15,17,19,21,23,25,27,-1,-1,29,31,33,35,37,39,41,43,45,47,49,51,53,55,57,59,61,63,65,67,69,71,73,75,77,79,81,83,85,87,89,91,93,95,97,99,-1,-1,-1,-1,-1,-1,-1,-1,-1,-1,-1,-1,-1,-1,-1,-1,-1,-1,-1,-1,-1,-1,-1,-1,-1,-1,-1,-1,-1,-1,-1,-1,-1,-1,-1,-1,-1,-1,-1,-1,-1,-1,-1,-1,-1,-1,-1,-1],"loss_changes":[6.6180336E-1,7.128537E-2,7.8725845E-2,6.90341E-4,1.2819916E-3,1.8033728E-2,1.3749152E-2,0E0,2.8169784E-6,6.0601276E-4,1.209686E-3,2.2160783E-3,6.4584315E-3,1.4035359E-2,1.0280535E-2,0E0,0E0,9.820284E-5,1.8567336E-4,2.7045287E-5,9.870841E-4,2.533557E-3,1.4867336E-3,2.5903434E-3,2.0282548E-3,1.103957E-2,1.4036216E-2,4.4619963E-3,6.5116584E-3,4.2949454E-5,9.502866E-5,1.0565622E-4,1.040732E-4,4.8952876E-5,7.872935E-6,6.522094E-4,2.6495312E-4,1.0493211E-3,8.9027965E-4,8.172531E-4,1.9888878E-3,1.6915128E-3,3.7070997E-3,1.4786525E-3,1.8623751E-3,7.680349E-3,9.7568445E-3,2.7723797E-3,3.6405548E-3,1.5758583E-3,3.1243078E-3,1.3993816E-3,2.9423237E-3,0E0,0E0,0E0,0E0,0E0,0E0,0E0,0E0,0E0,0E0,0E0,0E0,0E0,0E0,0E0,0E0,0E0,0E0,0E0,0E0,0E0,0E0,0E0,0E0,0E0,0E0,0E0,0E0,0E0,0E0,0E0,0E0,0E0,0E0,0E0,0E0,0E0,0E0,0E0,0E0,0E0,0E0,0E0,0E0,0E0,0E0,0E0,0E0],"parents":[2147483647,0,0,1,1,2,2,3,3,4,4,5,5,6,6,8,8,9,9,10,10,11,11,12,12,13,13,14,14,17,17,18,18,19,19,20,20,21,21,22,22,23,23,24,24,25,25,26,26,27,27,28,28,29,29,30,30,31,31,32,32,33,33,34,34,35,35,36,36,37,37,38,38,39,39,40,40,41,41,42,42,43,43,44,44,45,45,46,46,47,47,48,48,49,49,50,50,51,51,52,52],"right_children":[2,4,6,8,10,12,14,-1,16,18,20,22,24,26,28,-1,-1,30,32,34,36,38,40,42,44,46,48,50,52,54,56,58,60,62,64,66,68,70,72,74,76,78,80,82,84,86,88,90,92,94,96,98,100,-1,-1,-1,-1,-1,-1,-1,-1,-1,-1,-1,-1,-1,-1,-1,-1,-1,-1,-1,-1,-1,-1,-1,-1,-1,-1,-1,-1,-1,-1,-1,-1,-1,-1,-1,-1,-1,-1,-1,-1,-1,-1,-1,-1,-1,-1,-1,-1],"split_conditions":[1.3378481E-2,8.888236E-3,2.7559849E-2,8.888236E-3,2E0,2.1453027E-2,2.1940267E-3,-2.881876E-4,1.1E1,9.855787E-3,3E0,1.6095608E-2,2.6357973E-2,4.4100443E-3,1.576781E-3,1.2105087E-5,1.1898062E-4,1.0499842E-2,1.15E2,1.4254679E-2,4E1,1.407461E-2,8E0,2.642062E-2,1.9E1,2.953275E-2,3.2874949E-3,5.4549733E-3,8E0,9.404926E-3,9.269644E-3,1.1427436E-2,1.1723379E-2,1.2795106E-2,9.608722E-3,1.029246E-2,1.65E2,1.4E1,3.3E1,2.37E2,1.6E1,4.3E1,2.3E1,4E0,2.1E1,2.3E1,1.9E1,2.5E1,8E0,2.1056227E-4,2.6999337E-3,2E0,3.458976E-2,1.3351726E-4,2.1366752E-4,2.3117424E-5,3.1631964E-4,6.028331E-4,1.0932819E-3,2.6826726E-4,5.33568E-4,-1.601297E-4,-3.613674E-5,-1.9250951E-4,-3.0200492E-4,3.7391866E-5,1.207794E-4,1.8075181E-4,3.897238E-4,2.7162462E-4,4.5978543E-4,2.5626353E-4,1.210083E-4,3.5373037E-4,3.1784046E-5,5.501385E-4,3.5208723E-4,6.305219E-4,1.0923693E-4,6.061623E-4,1.1107497E-3,5.8381935E-5,9.217361E-4,1.1774933E-4,4.230142E-4,6.0139823E-4,1.2003358E-3,1.3170694E-3,4.6764108E-4,3.945856E-3,1.0850109E-3,4.5648727E-4,1.2425099E-3,2.558733E-3,1.201764E-3,3.796213E-3,2.1868055E-3,1.8206009E-3,2.952107E-4,1.3964474E-3,9.737118E-4],"split_indices":[35,13,35,35,3,35,39,0,3,24,3,35,24,40,17,0,0,13,0,24,3,24,3,35,3,24,29,39,3,24,24,24,35,35,13,35,0,3,3,1,3,3,3,3,3,3,3,3,3,17,28,3,11,0,0,0,0,0,0,0,0,0,0,0,0,0,0,0,0,0,0,0,0,0,0,0,0,0,0,0,0,0,0,0,0,0,0,0,0,0,0,0,0,0,0,0,0,0,0,0,0],"split_type":[0,0,0,0,0,0,0,0,0,0,0,0,0,0,0,0,0,0,0,0,0,0,0,0,0,0,0,0,0,0,0,0,0,0,0,0,0,0,0,0,0,0,0,0,0,0,0,0,0,0,0,0,0,0,0,0,0,0,0,0,0,0,0,0,0,0,0,0,0,0,0,0,0,0,0,0,0,0,0,0,0,0,0,0,0,0,0,0,0,0,0,0,0,0,0,0,0,0,0,0,0],"sum_hessian":[4.59045E5,3.26257E5,1.32788E5,2.78887E5,4.737E4,9.6745E4,3.6043E4,2.78213E5,6.74E2,4.366E3,4.3004E4,5.7169E4,3.9576E4,2.742E4,8.623E3,6.52E2,2.2E1,3.531E3,8.35E2,1.814E3,4.119E4,2.827E4,2.8899E4,2.6913E4,1.2663E4,2.1659E4,5.761E3,8.7E2,7.753E3,2.448E3,1.083E3,2.92E2,5.43E2,1.427E3,3.87E2,3.8959E4,2.231E3,1.0719E4,1.7551E4,2.894E3,2.6005E4,2.1658E4,5.255E3,1.227E3,1.1436E4,8.54E3,1.3119E4,2.38E2,5.523E3,4.19E2,4.51E2,8.82E2,6.871E3,1.104E3,1.344E3,1.11E2,9.72E2,2.43E2,4.9E1,2.95E2,2.48E2,1.029E3,3.98E2,3.09E2,7.8E1,1.237E4,2.6589E4,9.65E2,1.266E3,5.05E3,5.669E3,8.438E3,9.113E3,1.245E3,1.649E3,5.91E3,2.0095E4,2.1082E4,5.76E2,2.7E3,2.555E3,2.17E2,1.01E3,2.237E3,9.199E3,2.944E3,5.596E3,1.357E3,1.1762E4,2.01E2,3.7E1,5.96E2,4.927E3,1.03E2,3.16E2,2E2,2.51E2,5.7E1,8.25E2,4.686E3,2.185E3],"tree_param":{"num_deleted":"0","num_feature":"43","num_nodes":"101","size_leaf_vector":"1"}},{"base_weights":[4.1110985E-7,-5.791641E-4,1.2229916E-3,-6.707241E-4,2.058213E-4,7.808126E-4,1.9498122E-3,-6.724387E-4,3.697829E-5,5.6418806E-4,1.616664E-4,5.96626E-4,1.1528323E-3,1.7537591E-3,3.1619729E-3,-6.633455E-4,-2.0195503E-4,3.2741045E-5,2.2187737E-4,4.7436293E-4,1.0770403E-3,4.4394375E-5,2.4500303E-4,5.059705E-4,1.0281489E-3,1.3125655E-3,5.9754745E-4,1.8061451E-3,-1.2972383E-3,4.608792E-3,2.7552936E-3,-2.0194516E-4,-5.7798444E-4,2.1565054E-5,-7.085421E-6,5.651479E-4,2.5037583E-4,9.418923E-4,1.6228702E-3,1.3112687E-4,-8.515645E-5,3.148403E-4,-7.205187E-5,7.06485E-4,8.5741296E-5,1.1743975E-3,1.0962465E-4,4.8289445E-4,1.3855066E-3,1.1010593E-3,3.3005336E-4,1.7071381E-3,3.2242204E-3,-9.5418957E-4,-1.9900159E-3,2.2204646E-3,5.113416E-3,2.2873187E-3,4.326342E-3,-2.0184368E-4,-3.9518043E-5,-7.895711E-6,4.4404394E-5,1.1353819E-4,2.2198286E-4,-1.6863405E-4,8.634015E-5,4.7980348E-4,2.3229119E-4,3.2994975E-4,5.2029296E-4,-8.597674E-6,1.0778138E-4,-1.0652026E-4,-7.28599E-6,6.747423E-5,1.391285E-4,3.8881568E-4,-4.0123872E-5,8.934194E-5,2.771919E-4,-3.2481752E-5,1.6529117E-4,2.636297E-4,4.6584953E-4,6.023928E-4,9.404299E-6,6.090271E-4,-2.5681624E-5,6.157171E-4,3.8109417E-4,2.7019822E-4,6.1840407E-4,-4.547826E-5,3.1574233E-4,6.011132E-4,3.084091E-4,1.3059136E-3,7.309103E-4,-5.694702E-4,-1.9795765E-4,-7.960537E-4,-3.1692837E-4,7.711042E-4,-2.4444517E-3,1.1343417E-3,1.9355132E-3,1.4041455E-3,5.8526354E-4,1.945448E-3,1.1850705E-3],"categories":[],"categories_nodes":[],"categories_segments":[],"categories_sizes":[],"default_left":[0,0,0,0,0,0,0,0,0,0,0,0,0,0,0,0,0,0,0,0,0,0,0,0,0,0,0,0,0,0,0,0,0,0,0,0,0,0,0,0,0,0,0,0,0,0,0,0,0,0,0,0,0,0,0,0,0,0,0,0,0,0,0,0,0,0,0,0,0,0,0,0,0,0,0,0,0,0,0,0,0,0,0,0,0,0,0,0,0,0,0,0,0,0,0,0,0,0,0,0,0,0,0,0,0,0,0,0,0,0,0],"id":7,"left_children":[1,3,5,7,9,11,13,15,17,19,21,23,25,27,29,31,-1,33,-1,35,37,39,41,43,45,47,49,51,53,55,57,-1,59,-1,61,63,65,67,69,71,73,75,77,79,81,83,85,87,89,91,93,95,97,99,101,103,105,107,109,-1,-1,-1,-1,-1,-1,-1,-1,-1,-1,-1,-1,-1,-1,-1,-1,-1,-1,-1,-1,-1,-1,-1,-1,-1,-1,-1,-1,-1,-1,-1,-1,-1,-1,-1,-1,-1,-1,-1,-1,-1,-1,-1,-1,-1,-1,-1,-1,-1,-1,-1,-1],"loss_changes":[3.2527027E-1,2.2382706E-2,4.7444507E-2,3.3842027E-4,5.14652E-4,6.2888637E-3,1.3264939E-2,1.4454126E-6,1.9853576E-6,1.638562E-4,2.8304604E-4,2.4012867E-3,2.695173E-3,7.6851845E-3,4.5608655E-3,1.729466E-5,0E0,1.0480943E-6,0E0,6.163528E-5,3.7642196E-5,1.3521718E-4,3.7491298E-4,4.2753126E-3,1.4315918E-3,1.4277771E-3,9.1442675E-4,6.629482E-3,1.910784E-4,2.0423196E-3,4.4528395E-3,0E0,9.2333124E-5,0E0,1.0002626E-6,7.023761E-5,2.6859234E-5,4.5919238E-5,4.1544263E-6,2.6277237E-4,7.927984E-5,1.8570886E-4,2.581973E-4,3.0527562E-3,1.4795259E-3,1.0272339E-3,2.1763198E-4,1.6792931E-3,1.6640797E-3,4.5153266E-4,1.5440242E-3,8.895189E-3,2.7312562E-3,1.5018188E-4,1.632045E-4,1.105657E-3,2.4824739E-3,3.7582014E-3,1.1044387E-3,0E0,0E0,0E0,0E0,0E0,0E0,0E0,0E0,0E0,0E0,0E0,0E0,0E0,0E0,0E0,0E0,0E0,0E0,0E0,0E0,0E0,0E0,0E0,0E0,0E0,0E0,0E0,0E0,0E0,0E0,0E0,0E0,0E0,0E0,0E0,0E0,0E0,0E0,0E0,0E0,0E0,0E0,0E0,0E0,0E0,0E0,0E0,0E0,0E0,0E0,0E0,0E0],"parents":[2147483647,0,0,1,1,2,2,3,3,4,4,5,5,6,6,7,7,8,8,9,9,10,10,11,11,12,12,13,13,14,14,15,15,17,17,19,19,20,20,21,21,22,22,23,23,24,24,25,25,26,26,27,27,28,28,29,29,30,30,32,32,34,34,35,35,36,36,37,37,38,38,39,39,40,40,41,41,42,42,43,43,44,44,45,45,46,46,47,47,48,48,49,49,50,50,51,51,52,52,53,53,54,54,55,55,56,56,57,57,58,58],"right_children":[2,4,6,8,10,12,14,16,18,20,22,24,26,28,30,32,-1,34,-1,36,38,40,42,44,46,48,50,52,54,56,58,-1,60,-1,62,64,66,68,70,72,74,76,78,80,82,84,86,88,90,92,94,96,98,100,102,104,106,108,110,-1,-1,-1,-1,-1,-1,-1,-1,-1,-1,-1,-1,-1,-1,-1,-1,-1,-1,-1,-1,-1,-1,-1,-1,-1,-1,-1,-1,-1,-1,-1,-1,-1,-1,-1,-1,-1,-1,-1,-1,-1,-1,-1,-1,-1,-1,-1,-1,-1,-1,-1,-1],"split_conditions":[1.1882575E-2,8.888236E-3,2.5365327E-2,8.888236E-3,1E0,1.9119587E-2,3.801768E-2,2.487381E0,1.2E1,1.0812229E-2,8E0,4E1,2.6110075E-2,4.3E1,3.6062494E-2,1.83E2,-2.0195503E-4,9.162673E-3,2.2187737E-4,1.75E2,1.8850568E-3,2.65E2,1.2374015E-2,3.3E1,4.4E1,8E0,2.4E1,3.6E1,3.2543115E-2,2E1,4.9768012E-2,-2.0194516E-4,2.86E2,2.1565054E-5,9.397618E-3,2.27E2,9.218805E-3,1.04E2,1.105278E-2,1.2249806E-2,4E0,1.2E1,1.3E1,8E0,3.7E1,4.2E1,1.4531445E-2,2E0,1.6E1,8.536567E-5,3E1,2.6E1,3.9E1,1.9719915E-2,3.5310447E-2,1.9E1,1.24E2,1.6E1,3.595638E-2,-2.0184368E-4,-3.9518043E-5,-7.895711E-6,4.4404394E-5,1.1353819E-4,2.2198286E-4,-1.6863405E-4,8.634015E-5,4.7980348E-4,2.3229119E-4,3.2994975E-4,5.2029296E-4,-8.597674E-6,1.0778138E-4,-1.0652026E-4,-7.28599E-6,6.747423E-5,1.391285E-4,3.8881568E-4,-4.0123872E-5,8.934194E-5,2.771919E-4,-3.2481752E-5,1.6529117E-4,2.636297E-4,4.6584953E-4,6.023928E-4,9.404299E-6,6.090271E-4,-2.5681624E-5,6.157171E-4,3.8109417E-4,2.7019822E-4,6.1840407E-4,-4.547826E-5,3.1574233E-4,6.011132E-4,3.084091E-4,1.3059136E-3,7.309103E-4,-5.694702E-4,-1.9795765E-4,-7.960537E-4,-3.1692837E-4,7.711042E-4,-2.4444517E-3,1.1343417E-3,1.9355132E-3,1.4041455E-3,5.8526354E-4,1.945448E-3,1.1850705E-3],"split_indices":[35,13,35,35,3,35,35,2,3,9,3,3,24,3,24,0,0,35,0,0,37,1,13,3,3,3,3,3,35,3,24,0,1,0,35,1,24,0,13,13,3,3,3,3,3,3,35,3,3,37,3,3,3,13,35,3,0,3,13,0,0,0,0,0,0,0,0,0,0,0,0,0,0,0,0,0,0,0,0,0,0,0,0,0,0,0,0,0,0,0,0,0,0,0,0,0,0,0,0,0,0,0,0,0,0,0,0,0,0,0,0],"split_type":[0,0,0,0,0,0,0,0,0,0,0,0,0,0,0,0,0,0,0,0,0,0,0,0,0,0,0,0,0,0,0,0,0,0,0,0,0,0,0,0,0,0,0,0,0,0,0,0,0,0,0,0,0,0,0,0,0,0,0,0,0,0,0,0,0,0,0,0,0,0,0,0,0,0,0,0,0,0,0,0,0,0,0,0,0,0,0,0,0,0,0,0,0,0,0,0,0,0,0,0,0,0,0,0,0,0,0,0,0,0,0],"sum_hessian":[4.59045E5,3.11416E5,1.47629E5,2.78887E5,3.2529E4,9.1789E4,5.584E4,2.78213E5,6.74E2,3.567E3,2.8962E4,6.1395E4,3.0394E4,4.8068E4,7.772E3,2.1128E4,2.57085E5,6.71E2,3E0,3.037E3,5.3E2,1.2032E4,1.693E4,5.0738E4,1.0657E4,2.3603E4,6.791E3,4.7257E4,8.11E2,1.703E3,6.069E3,1.8945E4,2.183E3,3.38E2,3.33E2,2.16E3,8.77E2,4.27E2,1.03E2,7.207E3,4.825E3,1.3874E4,3.056E3,3.4348E4,1.639E4,9.193E3,1.464E3,1.908E3,2.1695E4,2.355E3,4.436E3,4.4175E4,3.082E3,5.44E2,2.67E2,2.98E2,1.405E3,4.678E3,1.391E3,1.8E3,3.83E2,2.97E2,3.6E1,1.046E3,1.114E3,3.8E1,8.39E2,8.5E1,3.42E2,2E1,8.3E1,4.239E3,2.968E3,8.87E2,3.938E3,8.652E3,5.222E3,1.31E2,2.925E3,1.1931E4,2.2417E4,1.1567E4,4.823E3,5.163E3,4.03E3,5.7E1,1.407E3,5.12E2,1.396E3,3.193E3,1.8502E4,1.95E3,4.05E2,2.662E3,1.774E3,3.0746E4,1.3429E4,1.265E3,1.817E3,1.28E2,4.16E2,1.55E2,1.12E2,2.89E2,9E0,7.06E2,6.99E2,5.75E2,4.103E3,2.04E2,1.187E3],"tree_param":{"num_deleted":"0","num_feature":"43","num_nodes":"111","size_leaf_vector":"1"}},{"base_weights":[3.186693E-7,-3.746981E-4,9.355757E-4,-4.6953937E-4,1.6764982E-4,6.842547E-4,1.6186085E-3,-1.4121283E-4,1.0555273E-5,2.2586629E-4,-5.5690587E-5,8.802658E-4,4.635052E-4,1.6831268E-3,-1.4771186E-3,1.7609341E-6,1.378572E-4,1.5940767E-4,4.807733E-4,-1.5944525E-4,6.4065045E-4,7.486435E-4,1.8676933E-3,2.2703834E-4,7.577499E-4,1.99112E-3,1.0734624E-3,-1.253374E-3,-7.6649818E-3,4.0123993E-4,1.2741504E-4,2.73874E-4,6.668734E-4,-2.5027923E-4,3.8932866E-4,5.4340024E-4,1.3877995E-3,3.2005765E-4,8.6870237E-4,1.4140687E-3,2.7444374E-3,3.544558E-4,-1.7391818E-4,1.0356336E-3,2.5036145E-4,1.3030561E-3,2.3517564E-3,1.8754909E-3,4.373161E-4,-1.0343613E-3,-2.7214333E-3,-1.6283141E-3,-3.3117803E-3,8.50709E-5,1.9447341E-4,8.350351E-6,5.6870307E-5,4.3229727E-4,5.194077E-5,3.222275E-4,1.2028124E-4,-8.899974E-6,-1.777643E-4,1.6195228E-4,-1.2039066E-4,2.323299E-4,5.719422E-5,7.393936E-4,2.9617333E-4,2.8137513E-4,4.141933E-6,3.328502E-4,1.3528668E-4,3.7390232E-4,5.390122E-4,7.1916747E-4,1.1565039E-3,4.5338245E-5,2.066144E-4,5.192796E-5,-7.6218064E-5,1.9198043E-4,4.5675354E-4,1.9578358E-4,5.374929E-6,6.0823903E-4,-4.064182E-4,1.7023021E-3,5.8017095E-4,1.0192002E-3,3.827944E-4,1.7443697E-4,-1.9803301E-4,-5.92928E-4,-2.3386718E-4,-1.896513E-3,-7.1670365E-4],"categories":[],"categories_nodes":[],"categories_segments":[],"categories_sizes":[],"default_left":[0,0,0,0,0,0,0,0,0,0,0,0,0,0,0,0,0,0,0,0,0,0,0,0,0,0,0,0,0,0,0,0,0,0,0,0,0,0,0,0,0,0,0,0,0,0,0,0,0,0,0,0,0,0,0,0,0,0,0,0,0,0,0,0,0,0,0,0,0,0,0,0,0,0,0,0,0,0,0,0,0,0,0,0,0,0,0,0,0,0,0,0,0,0,0,0,0],"id":8,"left_children":[1,3,5,7,9,11,13,-1,15,17,19,21,23,25,27,-1,-1,29,31,33,35,37,39,41,43,45,47,49,51,53,55,57,59,61,63,65,67,69,71,73,75,77,79,81,83,85,87,89,91,93,95,-1,-1,-1,-1,-1,-1,-1,-1,-1,-1,-1,-1,-1,-1,-1,-1,-1,-1,-1,-1,-1,-1,-1,-1,-1,-1,-1,-1,-1,-1,-1,-1,-1,-1,-1,-1,-1,-1,-1,-1,-1,-1,-1,-1,-1,-1],"loss_changes":[1.610048E-1,1.6854022E-2,2.2552513E-2,1.5665963E-4,6.341374E-4,4.155487E-3,7.0607886E-3,0E0,1.425674E-6,6.553107E-4,7.287296E-4,6.610438E-3,3.1430647E-3,6.498173E-3,9.900024E-4,0E0,0E0,2.3737724E-4,3.0784914E-4,4.3765723E-4,9.42857E-5,2.309613E-3,2.3756344E-3,1.2797356E-3,2.8376877E-3,5.7036728E-3,5.9283003E-3,2.2160844E-4,1.2881169E-4,1.040147E-4,1.6774665E-4,4.4535278E-4,4.5559544E-4,5.6871434E-4,1.486092E-4,9.430791E-5,6.226718E-5,1.8590754E-3,3.5269838E-3,2.5094673E-4,7.770099E-4,1.2917607E-3,1.6804537E-4,2.5045322E-3,6.6609017E-4,1.5233936E-2,2.0936497E-2,4.6851933E-3,1.025729E-3,1.4464493E-4,9.261008E-5,0E0,0E0,0E0,0E0,0E0,0E0,0E0,0E0,0E0,0E0,0E0,0E0,0E0,0E0,0E0,0E0,0E0,0E0,0E0,0E0,0E0,0E0,0E0,0E0,0E0,0E0,0E0,0E0,0E0,0E0,0E0,0E0,0E0,0E0,0E0,0E0,0E0,0E0,0E0,0E0,0E0,0E0,0E0,0E0,0E0,0E0],"parents":[2147483647,0,0,1,1,2,2,3,3,4,4,5,5,6,6,8,8,9,9,10,10,11,11,12,12,13,13,14,14,17,17,18,18,19,19,20,20,21,21,22,22,23,23,24,24,25,25,26,26,27,27,28,28,29,29,30,30,31,31,32,32,33,33,34,34,35,35,36,36,37,37,38,38,39,39,40,40,41,41,42,42,43,43,44,44,45,45,46,46,47,47,48,48,49,49,50,50],"right_children":[2,4,6,8,10,12,14,-1,16,18,20,22,24,26,28,-1,-1,30,32,34,36,38,40,42,44,46,48,50,52,54,56,58,60,62,64,66,68,70,72,74,76,78,80,82,84,86,88,90,92,94,96,-1,-1,-1,-1,-1,-1,-1,-1,-1,-1,-1,-1,-1,-1,-1,-1,-1,-1,-1,-1,-1,-1,-1,-1,-1,-1,-1,-1,-1,-1,-1,-1,-1,-1,-1,-1,-1,-1,-1,-1,-1,-1,-1,-1,-1,-1],"split_conditions":[1.3512064E-2,8.888236E-3,2.7674112E-2,8.888236E-3,1.2688175E-2,2.5E1,4.3E1,-1.4121283E-4,2.2919058E-4,1.1962255E-2,3.2600103E-4,2.3E1,3.6E1,2.38E2,4.2153712E-2,1.7609341E-6,1.378572E-4,1E0,1.3E1,3.7E1,4.1762716E-3,8E0,2.6665432E-2,3.4E1,4.3E1,2.1E1,1.29E2,3.801768E-2,4.5145232E-2,9.631118E-3,8E0,1E0,1.5E1,1.4E1,4.1E1,1.2875082E-2,3.2636174E-3,2E0,1.9E1,2.6203927E-2,2.7324967E-2,3.2E1,1.15E2,1.6753219E-2,2.26E2,1.9E1,2.5E1,2.8185012E-2,2.8E1,2.3269655E-2,2.8947467E-2,-1.6283141E-3,-3.3117803E-3,8.50709E-5,1.9447341E-4,8.350351E-6,5.6870307E-5,4.3229727E-4,5.194077E-5,3.222275E-4,1.2028124E-4,-8.899974E-6,-1.777643E-4,1.6195228E-4,-1.2039066E-4,2.323299E-4,5.719422E-5,7.393936E-4,2.9617333E-4,2.8137513E-4,4.141933E-6,3.328502E-4,1.3528668E-4,3.7390232E-4,5.390122E-4,7.1916747E-4,1.1565039E-3,4.5338245E-5,2.066144E-4,5.192796E-5,-7.6218064E-5,1.9198043E-4,4.5675354E-4,1.9578358E-4,5.374929E-6,6.0823903E-4,-4.064182E-4,1.7023021E-3,5.8017095E-4,1.0192002E-3,3.827944E-4,1.7443697E-4,-1.9803301E-4,-5.92928E-4,-2.3386718E-4,-1.896513E-3,-7.1670365E-4],"split_indices":[35,35,35,13,24,3,3,0,15,35,4,3,3,1,35,0,0,3,3,3,41,3,35,3,3,3,0,35,35,35,3,3,3,3,3,35,30,3,3,35,35,3,0,35,1,3,3,24,3,13,13,0,0,0,0,0,0,0,0,0,0,0,0,0,0,0,0,0,0,0,0,0,0,0,0,0,0,0,0,0,0,0,0,0,0,0,0,0,0,0,0,0,0,0,0,0,0],"split_type":[0,0,0,0,0,0,0,0,0,0,0,0,0,0,0,0,0,0,0,0,0,0,0,0,0,0,0,0,0,0,0,0,0,0,0,0,0,0,0,0,0,0,0,0,0,0,0,0,0,0,0,0,0,0,0,0,0,0,0,0,0,0,0,0,0,0,0,0,0,0,0,0,0,0,0,0,0,0,0,0,0,0,0,0,0,0,0,0,0,0,0,0,0,0,0,0,0],"sum_hessian":[4.59045E5,3.27661E5,1.31384E5,2.78891E5,4.877E4,9.6046E4,3.5338E4,2.78213E5,6.78E2,3.8686E4,1.0084E4,5.0872E4,4.5174E4,3.4617E4,7.21E2,6.72E2,6E0,3.0687E4,7.999E3,8.777E3,1.307E3,4.489E4,5.982E3,2.5047E4,2.0127E4,2.2997E4,1.162E4,6.97E2,2.4E1,3.584E3,2.7103E4,3.789E3,4.21E3,7.531E3,1.246E3,1.158E3,1.49E2,9.824E3,3.5066E4,3.944E3,2.038E3,1.9007E4,6.04E3,1.3004E4,7.123E3,7.91E3,1.5087E4,5.139E3,6.481E3,6.08E2,8.9E1,1.6E1,8E0,2.429E3,1.155E3,1.0416E4,1.6687E4,3E2,3.489E3,1.662E3,2.548E3,4.58E3,2.951E3,1.047E3,1.99E2,6.99E2,4.59E2,3.9E1,1.1E2,3.255E3,6.569E3,2.2243E4,1.2823E4,2.745E3,1.199E3,1.555E3,4.83E2,1.1819E4,7.188E3,1.133E3,4.907E3,7.175E3,5.829E3,2.608E3,4.515E3,6.216E3,1.694E3,1.684E3,1.3403E4,1.451E3,3.688E3,5.729E3,7.52E2,1.28E2,4.8E2,6E0,8.3E1],"tree_param":{"num_deleted":"0","num_feature":"43","num_nodes":"97","size_leaf_vector":"1"}},{"base_weights":[2.2862186E-7,-2.5351433E-4,6.7816867E-4,-3.2877456E-4,1.2714963E-4,5.6913076E-4,1.4452446E-3,-9.884912E-5,-3.0486332E-5,1.1630212E-4,1.1672761E-3,7.490004E-4,3.764752E-4,1.5066649E-3,-1.694485E-3,-1.0134106E-5,1.5915914E-4,1.7032327E-4,-8.689303E-6,1.7482103E-3,6.140814E-4,5.932363E-4,2.8546E-3,2.2717347E-4,6.1706995E-4,1.2911587E-3,2.813172E-3,-1.3929107E-3,-6.615132E-3,9.36863E-5,3.3116227E-4,-4.020807E-4,5.3973712E-5,1.5870602E-3,3.739635E-3,2.9272595E-4,9.2694495E-4,2.4562192E-4,7.1500544E-4,1.8768981E-3,5.4714107E-3,1.1270583E-4,5.3938903E-4,9.041411E-4,1.3079308E-4,1.5335804E-3,-5.4745586E-4,4.7249733E-3,1.0468458E-3,-3.5010232E-3,-1.184047E-3,-4.3534553E-3,-2.4425383E-3,8.052154E-5,3.0757183E-6,1.9892877E-4,3.7004193E-5,-1.4069477E-4,-6.4379274E-5,7.590981E-5,-2.655187E-5,8.3038287E-4,4.2046866E-4,4.2201698E-4,1.2205731E-3,1.6019717E-4,-1.2210778E-4,2.4480172E-4,5.2014895E-4,2.8770775E-4,2.7277041E-5,4.0637105E-4,1.559039E-4,3.8068497E-4,8.7362895E-4,1.2019493E-3,2.0003007E-3,-3.315613E-5,6.774165E-5,8.04848E-5,4.2473918E-4,1.900706E-4,4.5462017E-4,7.696099E-5,-1.5243064E-4,3.6450475E-4,6.951316E-4,-9.669899E-4,3.2707234E-4,1.0747778E-3,1.7668089E-3,9.109919E-4,1.4138196E-4,-1.2547651E-3,-6.760181E-4,-2.3821197E-4,-6.445004E-4,-1.4971431E-3,-4.2477605E-4],"categories":[],"categories_nodes":[],"categories_segments":[],"categories_sizes":[],"default_left":[0,0,0,0,0,0,0,0,0,0,0,0,0,0,0,0,0,0,0,0,0,0,0,0,0,0,0,0,0,0,0,0,0,0,0,0,0,0,0,0,0,0,0,0,0,0,0,0,0,0,0,0,0,0,0,0,0,0,0,0,0,0,0,0,0,0,0,0,0,0,0,0,0,0,0,0,0,0,0,0,0,0,0,0,0,0,0,0,0,0,0,0,0,0,0,0,0,0,0],"id":9,"left_children":[1,3,5,7,9,11,13,-1,15,17,19,21,23,25,27,-1,-1,29,31,33,35,37,39,41,43,45,47,49,51,53,55,57,59,61,63,65,67,69,71,73,75,77,79,81,83,85,87,89,91,93,95,97,-1,-1,-1,-1,-1,-1,-1,-1,-1,-1,-1,-1,-1,-1,-1,-1,-1,-1,-1,-1,-1,-1,-1,-1,-1,-1,-1,-1,-1,-1,-1,-1,-1,-1,-1,-1,-1,-1,-1,-1,-1,-1,-1,-1,-1,-1,-1],"loss_changes":[7.896641E-2,9.569503E-3,1.0455973E-2,6.0096383E-5,6.2198524E-4,3.7929304E-3,3.0029975E-3,0E0,1.2653215E-6,3.6847463E-4,1.8178584E-4,1.8564746E-2,1.8984755E-3,4.2932555E-3,4.344838E-4,0E0,0E0,4.6963466E-4,4.0600056E-4,8.2959305E-5,2.9186995E-5,2.231015E-3,9.965166E-3,1.1656245E-3,2.825166E-3,5.840663E-3,7.289082E-3,1.2046192E-4,2.3252913E-5,3.762127E-4,8.4810576E-4,2.8284063E-5,4.0296005E-4,5.263585E-5,9.624462E-6,2.4865854E-5,1.1833428E-5,1.5092301E-3,4.875809E-3,1.7836504E-3,1.8308498E-3,6.0261576E-4,2.0786189E-3,2.1037934E-3,6.037821E-4,2.8865933E-3,6.6951658E-3,1.358293E-3,1.2858533E-3,1.1832366E-5,9.5698604E-5,9.775336E-6,0E0,0E0,0E0,0E0,0E0,0E0,0E0,0E0,0E0,0E0,0E0,0E0,0E0,0E0,0E0,0E0,0E0,0E0,0E0,0E0,0E0,0E0,0E0,0E0,0E0,0E0,0E0,0E0,0E0,0E0,0E0,0E0,0E0,0E0,0E0,0E0,0E0,0E0,0E0,0E0,0E0,0E0,0E0,0E0,0E0,0E0,0E0],"parents":[2147483647,0,0,1,1,2,2,3,3,4,4,5,5,6,6,8,8,9,9,10,10,11,11,12,12,13,13,14,14,17,17,18,18,19,19,20,20,21,21,22,22,23,23,24,24,25,25,26,26,27,27,28,28,29,29,30,30,31,31,32,32,33,33,34,34,35,35,36,36,37,37,38,38,39,39,40,40,41,41,42,42,43,43,44,44,45,45,46,46,47,47,48,48,49,49,50,50,51,51],"right_children":[2,4,6,8,10,12,14,-1,16,18,20,22,24,26,28,-1,-1,30,32,34,36,38,40,42,44,46,48,50,52,54,56,58,60,62,64,66,68,70,72,74,76,78,80,82,84,86,88,90,92,94,96,98,-1,-1,-1,-1,-1,-1,-1,-1,-1,-1,-1,-1,-1,-1,-1,-1,-1,-1,-1,-1,-1,-1,-1,-1,-1,-1,-1,-1,-1,-1,-1,-1,-1,-1,-1,-1,-1,-1,-1,-1,-1,-1,-1,-1,-1,-1,-1],"split_conditions":[1.4166098E-2,8.888236E-3,3.3866152E-2,8.888236E-3,4.772485E-3,2.5E1,4.3E1,-9.884912E-5,1.2E1,1.2347521E-2,3.2874949E-3,2.4E1,3.6E1,3.6E1,4.344152E-2,-1.0134106E-5,1.5915914E-4,1.2E1,9.746791E-3,3.6135549E-3,1.32125905E-2,1.2E1,2.7921937E-2,3.1543013E-2,4.3E1,2.9E1,4E1,2.6271176E-2,4.213615E-2,5E0,2.7E1,9.481096E-3,1.5E1,8.888476E-3,1.13180475E-2,5.858878E-3,1.95E2,2E0,1.6E1,2.7119234E-2,2.28E2,3.1E1,3E1,1.9509153E-2,2.2076124E-2,4.1091345E-2,3E1,3.6062494E-2,1.16E2,2.0963287E-2,3.858821E-2,3.68673E-2,-2.4425383E-3,8.052154E-5,3.0757183E-6,1.9892877E-4,3.7004193E-5,-1.4069477E-4,-6.4379274E-5,7.590981E-5,-2.655187E-5,8.3038287E-4,4.2046866E-4,4.2201698E-4,1.2205731E-3,1.6019717E-4,-1.2210778E-4,2.4480172E-4,5.2014895E-4,2.8770775E-4,2.7277041E-5,4.0637105E-4,1.559039E-4,3.8068497E-4,8.7362895E-4,1.2019493E-3,2.0003007E-3,-3.315613E-5,6.774165E-5,8.04848E-5,4.2473918E-4,1.900706E-4,4.5462017E-4,7.696099E-5,-1.5243064E-4,3.6450475E-4,6.951316E-4,-9.669899E-4,3.2707234E-4,1.0747778E-3,1.7668089E-3,9.109919E-4,1.4138196E-4,-1.2547651E-3,-6.760181E-4,-2.3821197E-4,-6.445004E-4,-1.4971431E-3,-4.2477605E-4],"split_indices":[35,13,35,35,37,3,3,0,3,24,26,3,3,3,35,0,0,3,13,8,24,3,35,13,3,3,3,13,31,3,3,9,3,10,9,26,0,3,3,35,1,3,3,13,35,31,3,24,0,10,35,9,0,0,0,0,0,0,0,0,0,0,0,0,0,0,0,0,0,0,0,0,0,0,0,0,0,0,0,0,0,0,0,0,0,0,0,0,0,0,0,0,0,0,0,0,0,0,0],"split_type":[0,0,0,0,0,0,0,0,0,0,0,0,0,0,0,0,0,0,0,0,0,0,0,0,0,0,0,0,0,0,0,0,0,0,0,0,0,0,0,0,0,0,0,0,0,0,0,0,0,0,0,0,0,0,0,0,0,0,0,0,0,0,0,0,0,0,0,0,0,0,0,0,0,0,0,0,0,0,0,0,0,0,0,0,0,0,0,0,0,0,0,0,0,0,0,0,0,0,0],"sum_hessian":[4.59045E5,3.34025E5,1.2502E5,2.78887E5,5.5138E4,1.09462E5,1.5558E4,2.78213E5,6.74E2,5.457E4,5.68E2,5.6608E4,5.2854E4,1.526E4,2.98E2,6.71E2,3E0,3.8102E4,1.6468E4,2.76E2,2.92E2,5.271E4,3.898E3,3.2616E4,2.0238E4,1.3101E4,2.159E3,2.82E2,1.6E1,2.5807E4,1.2295E4,2.262E3,1.4206E4,2.57E2,1.9E1,1.45E2,1.47E2,1.3675E4,3.9035E4,2.839E3,1.059E3,2.3867E4,8.749E3,1.2725E4,7.513E3,1.1575E4,1.526E3,1.036E3,1.123E3,2.4E1,2.58E2,8E0,8E0,8.34E3,1.7467E4,4.733E3,7.562E3,1.666E3,5.96E2,5.926E3,8.28E3,3.3E1,2.24E2,3E0,1.6E1,1.08E2,3.7E1,1.31E2,1.6E1,2.436E3,1.1239E4,9.131E3,2.9904E4,1.79E3,1.049E3,4.78E2,5.81E2,8.026E3,1.5841E4,6.683E3,2.066E3,8.822E3,3.903E3,6.278E3,1.235E3,8.231E3,3.344E3,5.79E2,9.47E2,5.25E2,5.11E2,2.51E2,8.72E2,1.4E1,1E1,1.85E2,7.3E1,6E0,2E0],"tree_param":{"num_deleted":"0","num_feature":"43","num_nodes":"99","size_leaf_vector":"1"}},{"base_weights":[1.7638136E-7,-1.5673053E-4,5.614775E-4,-2.3012127E-4,9.95454E-5,5.1132654E-4,1.6076912E-3,-6.9194495E-5,-1.3830716E-5,1.2064829E-4,-1.8101265E-3,6.7945063E-4,2.678239E-4,3.5753038E-3,1.2672736E-3,-7.098513E-6,2.4411047E-4,1.1075763E-4,1.9931966E-3,-2.1328381E-3,1.022806E-4,4.4984522E-4,1.1037111E-3,-3.1385035E-4,4.098276E-4,6.4496356E-3,3.134163E-3,1.0055858E-3,3.059235E-3,7.7751836E-5,5.3517404E-4,2.3039992E-3,-7.4918976E-4,-1.5188713E-3,-2.5324286E-3,1.5426859E-3,-7.9243E-4,8.657741E-4,-8.48893E-5,1.0034599E-3,3.192351E-3,2.3436228E-4,-8.579945E-4,2.6811627E-4,8.7986415E-4,7.907715E-3,3.3184905E-3,2.507262E-3,4.931835E-3,-3.362808E-4,1.259961E-3,2.1702277E-3,4.2483187E-3,2.0604868E-5,2.553415E-4,2.644081E-4,7.7383585E-5,7.380412E-5,8.568476E-4,-1.3607318E-3,-3.768262E-6,-3.797275E-4,-1.232521E-3,-4.797619E-4,-8.881555E-4,1.2693036E-3,1.0394082E-4,-8.209837E-4,1.7900511E-6,8.094558E-5,3.531374E-4,9.26444E-6,-1.2480427E-3,4.5129034E-4,1.958707E-4,1.4907469E-3,3.824131E-4,1.7116294E-5,8.748556E-4,-6.283417E-5,-8.302617E-4,-2.3424795E-5,1.0804418E-4,3.299487E-4,-9.801309E-5,1.0963865E-4,2.4088065E-3,2.610113E-3,4.8315097E-4,1.3009635E-3,6.370384E-4,1.0831116E-3,1.8366907E-3,-6.0361123E-4,5.017406E-5,3.4949827E-4,1.0639323E-3,2.3401511E-4,7.317662E-4,9.5598423E-4,1.382705E-3],"categories":[],"categories_nodes":[],"categories_segments":[],"categories_sizes":[],"default_left":[0,0,0,0,0,0,0,0,0,0,0,0,0,0,0,0,0,0,0,0,0,0,0,0,0,0,0,0,0,0,0,0,0,0,0,0,0,0,0,0,0,0,0,0,0,0,0,0,0,0,0,0,0,0,0,0,0,0,0,0,0,0,0,0,0,0,0,0,0,0,0,0,0,0,0,0,0,0,0,0,0,0,0,0,0,0,0,0,0,0,0,0,0,0,0,0,0,0,0,0,0],"id":10,"left_children":[1,3,5,7,9,11,13,-1,15,17,19,21,23,25,27,-1,-1,29,31,33,35,37,39,41,43,45,47,49,51,53,55,57,59,61,63,65,67,69,71,73,75,77,79,81,83,85,87,89,91,93,95,97,99,-1,-1,-1,-1,-1,-1,-1,-1,-1,-1,-1,-1,-1,-1,-1,-1,-1,-1,-1,-1,-1,-1,-1,-1,-1,-1,-1,-1,-1,-1,-1,-1,-1,-1,-1,-1,-1,-1,-1,-1,-1,-1,-1,-1,-1,-1,-1,-1],"loss_changes":[4.0429197E-2,6.747662E-3,5.2611455E-3,3.1787902E-5,3.2188671E-3,3.9177295E-3,3.0678874E-3,0E0,5.543234E-6,1.462844E-3,5.3899526E-4,5.51432E-3,3.2289585E-3,8.369442E-4,1.8313965E-3,0E0,0E0,1.1007511E-3,3.5544776E-4,1.7941906E-4,1.648932E-4,8.170361E-3,4.1592363E-3,2.2885117E-3,2.0926343E-3,3.8008392E-4,6.502881E-4,1.1660922E-3,5.172179E-4,5.113383E-4,5.43938E-4,4.231506E-4,1.1988319E-4,1.8946663E-4,1.7544115E-4,1.5610925E-4,1.226424E-4,3.8337251E-3,7.5832917E-3,3.3296496E-3,3.0942848E-3,1.8172276E-3,4.767375E-3,7.692488E-4,1.9319681E-3,5.2112387E-5,2.617538E-4,2.9830262E-4,2.1544285E-4,4.60202E-4,6.192769E-4,1.0542036E-4,6.6499226E-5,0E0,0E0,0E0,0E0,0E0,0E0,0E0,0E0,0E0,0E0,0E0,0E0,0E0,0E0,0E0,0E0,0E0,0E0,0E0,0E0,0E0,0E0,0E0,0E0,0E0,0E0,0E0,0E0,0E0,0E0,0E0,0E0,0E0,0E0,0E0,0E0,0E0,0E0,0E0,0E0,0E0,0E0,0E0,0E0,0E0,0E0,0E0,0E0],"parents":[2147483647,0,0,1,1,2,2,3,3,4,4,5,5,6,6,8,8,9,9,10,10,11,11,12,12,13,13,14,14,17,17,18,18,19,19,20,20,21,21,22,22,23,23,24,24,25,25,26,26,27,27,28,28,29,29,30,30,31,31,32,32,33,33,34,34,35,35,36,36,37,37,38,38,39,39,40,40,41,41,42,42,43,43,44,44,45,45,46,46,47,47,48,48,49,49,50,50,51,51,52,52],"right_children":[2,4,6,8,10,12,14,-1,16,18,20,22,24,26,28,-1,-1,30,32,34,36,38,40,42,44,46,48,50,52,54,56,58,60,62,64,66,68,70,72,74,76,78,80,82,84,86,88,90,92,94,96,98,100,-1,-1,-1,-1,-1,-1,-1,-1,-1,-1,-1,-1,-1,-1,-1,-1,-1,-1,-1,-1,-1,-1,-1,-1,-1,-1,-1,-1,-1,-1,-1,-1,-1,-1,-1,-1,-1,-1,-1,-1,-1,-1,-1,-1,-1,-1,-1,-1],"split_conditions":[1.570489E-2,8.888236E-3,2.234113E-2,8.888236E-3,1.9727949E-2,2.8E1,2.2169303E-2,-6.9194495E-5,1.2E1,2.4111489E-2,1.4103596E-2,2.3E1,3E1,2.3580415E-3,3.7E1,-7.098513E-6,2.4411047E-4,4.2E1,2E0,2.31E2,1.27E2,1.9E1,6.174817E-3,2.9E1,2.833038E-2,1.6E2,2.7050383E-2,2.2765484E-2,3.6062494E-2,5.2027185E-3,4.3E1,1.14E2,1.502514E-2,1.75E2,1.8761154E-2,8.888428E-3,8.888236E-3,1.2E1,3.5310447E-2,2.5E1,2.8138917E-3,4.7029495E-2,2.6871935E-2,3.2E1,4.3E1,2.27E2,6.446099E-4,1.7409902E-2,3.5197657E-2,6E0,4.3513227E-2,2.779022E-2,2.1629635E-2,2.0604868E-5,2.553415E-4,2.644081E-4,7.7383585E-5,7.380412E-5,8.568476E-4,-1.3607318E-3,-3.768262E-6,-3.797275E-4,-1.232521E-3,-4.797619E-4,-8.881555E-4,1.2693036E-3,1.0394082E-4,-8.209837E-4,1.7900511E-6,8.094558E-5,3.531374E-4,9.26444E-6,-1.2480427E-3,4.5129034E-4,1.958707E-4,1.4907469E-3,3.824131E-4,1.7116294E-5,8.748556E-4,-6.283417E-5,-8.302617E-4,-2.3424795E-5,1.0804418E-4,3.299487E-4,-9.801309E-5,1.0963865E-4,2.4088065E-3,2.610113E-3,4.8315097E-4,1.3009635E-3,6.370384E-4,1.0831116E-3,1.8366907E-3,-6.0361123E-4,5.017406E-5,3.4949827E-4,1.0639323E-3,2.3401511E-4,7.317662E-4,9.5598423E-4,1.382705E-3],"split_indices":[13,13,37,35,24,3,26,0,3,31,13,3,3,4,3,0,0,3,3,1,0,3,37,3,13,0,37,15,24,37,3,0,20,0,34,12,11,3,35,3,15,24,35,3,3,1,5,26,10,3,33,24,38,0,0,0,0,0,0,0,0,0,0,0,0,0,0,0,0,0,0,0,0,0,0,0,0,0,0,0,0,0,0,0,0,0,0,0,0,0,0,0,0,0,0,0,0,0,0,0,0],"split_type":[0,0,0,0,0,0,0,0,0,0,0,0,0,0,0,0,0,0,0,0,0,0,0,0,0,0,0,0,0,0,0,0,0,0,0,0,0,0,0,0,0,0,0,0,0,0,0,0,0,0,0,0,0,0,0,0,0,0,0,0,0,0,0,0,0,0,0,0,0,0,0,0,0,0,0,0,0,0,0,0,0,0,0,0,0,0,0,0,0,0,0,0,0,0,0,0,0,0,0,0,0],"sum_hessian":[4.59045E5,3.58758E5,1.00287E5,2.78891E5,7.9867E4,9.5701E4,4.586E3,2.78213E5,6.78E2,7.8995E4,8.72E2,5.6612E4,3.9089E4,6.75E2,3.911E3,6.71E2,7E0,7.8581E4,4.14E2,7.46E2,1.26E2,3.6734E4,1.9878E4,7.67E3,3.1419E4,8.8E1,5.87E2,3.414E3,4.97E2,7.2912E4,5.669E3,3.72E2,4.2E1,2.96E2,4.5E2,4.8E1,7.8E1,2.0662E4,1.6072E4,1.8969E4,9.09E2,3.821E3,3.849E3,2.4142E4,7.277E3,5.9E1,2.9E1,4.37E2,1.5E2,5.44E2,2.87E3,2.86E2,2.11E2,7.2068E4,8.44E2,2.52E3,3.149E3,7.9E1,2.93E2,6E0,3.6E1,2.71E2,2.5E1,1.43E2,3.07E2,1.4E1,3.4E1,2.2E1,5.6E1,7.091E3,1.3571E4,1.5629E4,4.43E2,7.809E3,1.116E4,4.71E2,4.38E2,3.585E3,2.36E2,2.874E3,9.75E2,5.07E3,1.9072E4,6.155E3,1.122E3,1E0,5.8E1,6E0,2.3E1,7.4E1,3.63E2,7.3E1,7.7E1,1.25E2,4.19E2,2.757E3,1.13E2,4.7E1,2.39E2,5.6E1,1.55E2],"tree_param":{"num_deleted":"0","num_feature":"43","num_nodes":"101","size_leaf_vector":"1"}},{"base_weights":[1.552725E-7,-1.06312276E-4,4.1361974E-4,-1.581987E-4,8.566502E-5,3.1673216E-4,7.8147574E-4,-1.5871401E-4,1.3540566E-3,9.898163E-5,-1.3641211E-3,2.6825356E-4,1.2159107E-3,1.1595918E-3,4.883308E-4,-1.5731232E-4,-3.6685247E-4,1.5796184E-3,-5.735336E-4,9.311348E-5,1.6033126E-3,-1.8493134E-3,-6.4343825E-4,2.0170597E-4,7.139791E-4,2.832702E-3,1.0015478E-3,3.005905E-4,1.6783174E-3,2.2561265E-4,1.164487E-3,-1.6004239E-4,1.024963E-4,-3.1635974E-4,-7.767415E-4,8.874141E-4,1.698584E-3,-8.844661E-4,1.6513253E-4,5.1290917E-5,3.159075E-4,2.1770077E-3,-1.0867465E-4,-1.5176568E-3,-2.625188E-3,-5.061828E-5,-1.933906E-3,2.1712133E-4,-1.5019028E-3,1.1130035E-3,2.718809E-4,2.4567007E-3,5.3490484E-3,7.844041E-4,2.5458839E-3,1.2521076E-3,-3.4262048E-5,1.3937905E-3,2.4346674E-3,1.2067813E-4,1.3333505E-3,9.356515E-4,1.9398297E-3,-4.7821562E-5,-1.4194574E-4,2.3280532E-5,2.7779554E-4,-1.1733458E-4,-6.0364506E-5,2.3526425E-4,-2.7025098E-4,2.895788E-4,-3.036987E-5,5.2815553E-4,2.1097231E-4,-3.4457163E-4,-8.015719E-5,4.2566742E-5,-3.8765742E-5,7.738279E-5,3.3838738E-4,9.2101266E-4,3.2943088E-4,1.2395415E-4,-2.403565E-4,-3.3536425E-4,-7.892696E-4,-4.527999E-4,-1.0198104E-3,9.3735114E-5,-6.49406E-4,-1.0237241E-3,-3.4133362E-4,1.3829228E-4,4.055972E-5,-2.7081833E-4,-1.0364992E-3,4.7027765E-4,2.0244153E-4,-3.904481E-5,2.0196979E-4,1.26972E-3,5.6055735E-4,1.8974262E-3,2.0815436E-4,3.743841E-4,1.2735853E-5,3.782791E-4,1.3610751E-3,-6.405899E-5,8.020561E-4,-4.0760377E-4,5.462348E-5,9.811154E-4,3.5885003E-4,5.402017E-4,1.360911E-3,6.144299E-5,-2.1988642E-4,1.238891E-4,7.2276604E-4,3.680701E-4,-3.3720895E-5,4.0352493E-4,9.770504E-4],"categories":[],"categories_nodes":[],"categories_segments":[],"categories_sizes":[],"default_left":[0,0,0,0,0,0,0,0,0,0,0,0,0,0,0,0,0,0,0,0,0,0,0,0,0,0,0,0,0,0,0,0,0,0,0,0,0,0,0,0,0,0,0,0,0,0,0,0,0,0,0,0,0,0,0,0,0,0,0,0,0,0,0,0,0,0,0,0,0,0,0,0,0,0,0,0,0,0,0,0,0,0,0,0,0,0,0,0,0,0,0,0,0,0,0,0,0,0,0,0,0,0,0,0,0,0,0,0,0,0,0,0,0,0,0,0,0,0,0,0,0,0,0,0,0],"id":11,"left_children":[1,3,5,7,9,11,13,15,17,19,21,23,25,27,29,31,33,35,37,39,41,43,45,47,49,51,53,55,57,59,61,63,65,67,69,71,73,75,-1,77,79,81,83,85,87,89,91,93,95,97,99,101,103,105,107,109,111,113,115,117,119,121,123,-1,-1,-1,-1,-1,-1,-1,-1,-1,-1,-1,-1,-1,-1,-1,-1,-1,-1,-1,-1,-1,-1,-1,-1,-1,-1,-1,-1,-1,-1,-1,-1,-1,-1,-1,-1,-1,-1,-1,-1,-1,-1,-1,-1,-1,-1,-1,-1,-1,-1,-1,-1,-1,-1,-1,-1,-1,-1,-1,-1,-1,-1],"loss_changes":[2.0207502E-2,3.6362517E-3,3.3499748E-3,2.2416934E-4,1.4996701E-3,3.2430566E-3,2.17151E-3,8.375617E-5,4.3515465E-5,6.7927066E-4,2.4602655E-4,2.0939899E-3,1.3162466E-3,3.8123755E-3,1.9608664E-3,2.0242156E-4,3.9512088E-5,5.739319E-6,4.331132E-6,7.143529E-4,2.93902E-4,1.0460662E-4,2.1869643E-4,1.6135846E-3,1.6175346E-3,4.078953E-4,1.1254256E-3,1.0269483E-3,1.1447091E-3,9.241792E-4,5.4625375E-4,5.6264456E-5,6.0773218E-5,1.4657693E-5,4.138492E-5,1.2521878E-6,3.3237156E-6,1.160347E-6,0E0,1.0556782E-3,5.700609E-4,2.124526E-4,2.7796812E-5,1.2968306E-4,1.02853286E-4,1.5188409E-4,1.0205465E-4,1.2161369E-3,6.4168626E-4,9.590867E-4,7.0230686E-4,3.9837277E-4,2.5451148E-4,1.0141855E-3,1.0534506E-3,1.748439E-3,6.836091E-4,1.4346521E-3,1.9332375E-3,5.219056E-4,6.8027363E-4,7.287571E-4,5.462682E-4,0E0,0E0,0E0,0E0,0E0,0E0,0E0,0E0,0E0,0E0,0E0,0E0,0E0,0E0,0E0,0E0,0E0,0E0,0E0,0E0,0E0,0E0,0E0,0E0,0E0,0E0,0E0,0E0,0E0,0E0,0E0,0E0,0E0,0E0,0E0,0E0,0E0,0E0,0E0,0E0,0E0,0E0,0E0,0E0,0E0,0E0,0E0,0E0,0E0,0E0,0E0,0E0,0E0,0E0,0E0,0E0,0E0,0E0,0E0,0E0,0E0,0E0],"parents":[2147483647,0,0,1,1,2,2,3,3,4,4,5,5,6,6,7,7,8,8,9,9,10,10,11,11,12,12,13,13,14,14,15,15,16,16,17,17,18,18,19,19,20,20,21,21,22,22,23,23,24,24,25,25,26,26,27,27,28,28,29,29,30,30,31,31,32,32,33,33,34,34,35,35,36,36,37,37,39,39,40,40,41,41,42,42,43,43,44,44,45,45,46,46,47,47,48,48,49,49,50,50,51,51,52,52,53,53,54,54,55,55,56,56,57,57,58,58,59,59,60,60,61,61,62,62],"right_children":[2,4,6,8,10,12,14,16,18,20,22,24,26,28,30,32,34,36,38,40,42,44,46,48,50,52,54,56,58,60,62,64,66,68,70,72,74,76,-1,78,80,82,84,86,88,90,92,94,96,98,100,102,104,106,108,110,112,114,116,118,120,122,124,-1,-1,-1,-1,-1,-1,-1,-1,-1,-1,-1,-1,-1,-1,-1,-1,-1,-1,-1,-1,-1,-1,-1,-1,-1,-1,-1,-1,-1,-1,-1,-1,-1,-1,-1,-1,-1,-1,-1,-1,-1,-1,-1,-1,-1,-1,-1,-1,-1,-1,-1,-1,-1,-1,-1,-1,-1,-1,-1,-1,-1,-1],"split_conditions":[1.6491562E-2,9.520441E-3,4.2156677E-4,1.5760325E-2,2.100389E-2,2.2377606E-2,2.6E1,1.0851129E-2,1.67E2,1.3316178E-2,1.3053437E-2,5.5055675E-4,2.1629635E-2,1.2E1,3.6E1,9.432605E-3,1.396653E-2,9.607674E-3,8.8526006E-4,4E1,3.762705E-3,2.48E2,1.71E2,1.6296906E-3,1.5508303E-3,4.9811065E-2,3.7E1,5E0,2.4E1,4.7091123E-2,2.2377606E-2,1.3897649E-2,9.313334E-4,1.2723571E-2,2.17E2,9.340135E-3,1.7524349E-2,7.124407E-4,1.6513253E-4,1.6E1,1.12116264E-4,1.53E2,1.7225428E-2,1.69E2,2.2076124E-2,2.58E2,2.33E2,1.2E2,3.858821E-2,2.6E1,4.115346E-3,5E0,1.62E2,2.9E1,3.386423E-2,4E0,6E0,1.3E1,2.9576737E-2,4.3411102E-2,2.3620749E-2,2.4299812E-2,3.858821E-2,-4.7821562E-5,-1.4194574E-4,2.3280532E-5,2.7779554E-4,-1.1733458E-4,-6.0364506E-5,2.3526425E-4,-2.7025098E-4,2.895788E-4,-3.036987E-5,5.2815553E-4,2.1097231E-4,-3.4457163E-4,-8.015719E-5,4.2566742E-5,-3.8765742E-5,7.738279E-5,3.3838738E-4,9.2101266E-4,3.2943088E-4,1.2395415E-4,-2.403565E-4,-3.3536425E-4,-7.892696E-4,-4.527999E-4,-1.0198104E-3,9.3735114E-5,-6.49406E-4,-1.0237241E-3,-3.4133362E-4,1.3829228E-4,4.055972E-5,-2.7081833E-4,-1.0364992E-3,4.7027765E-4,2.0244153E-4,-3.904481E-5,2.0196979E-4,1.26972E-3,5.6055735E-4,1.8974262E-3,2.0815436E-4,3.743841E-4,1.2735853E-5,3.782791E-4,1.3610751E-3,-6.405899E-5,8.020561E-4,-4.0760377E-4,5.462348E-5,9.811154E-4,3.5885003E-4,5.402017E-4,1.360911E-3,6.144299E-5,-2.1988642E-4,1.238891E-4,7.2276604E-4,3.680701E-4,-3.3720895E-5,4.0352493E-4,9.770504E-4],"split_indices":[13,13,39,35,24,40,3,24,0,37,9,41,29,3,3,24,35,24,15,3,15,1,0,28,7,31,3,3,3,23,39,35,41,35,1,9,31,18,0,3,37,0,35,0,35,1,1,0,35,3,15,3,0,3,24,3,3,3,23,13,39,6,35,0,0,0,0,0,0,0,0,0,0,0,0,0,0,0,0,0,0,0,0,0,0,0,0,0,0,0,0,0,0,0,0,0,0,0,0,0,0,0,0,0,0,0,0,0,0,0,0,0,0,0,0,0,0,0,0,0,0,0,0,0,0],"split_type":[0,0,0,0,0,0,0,0,0,0,0,0,0,0,0,0,0,0,0,0,0,0,0,0,0,0,0,0,0,0,0,0,0,0,0,0,0,0,0,0,0,0,0,0,0,0,0,0,0,0,0,0,0,0,0,0,0,0,0,0,0,0,0,0,0,0,0,0,0,0,0,0,0,0,0,0,0,0,0,0,0,0,0,0,0,0,0,0,0,0,0,0,0,0,0,0,0,0,0,0,0,0,0,0,0,0,0,0,0,0,0,0,0,0,0,0,0,0,0,0,0,0,0,0,0],"sum_hessian":[4.59045E5,3.65046E5,9.3999E4,2.87376E5,7.767E4,7.4404E4,1.9595E4,2.87279E5,9.7E1,7.6964E4,7.06E2,7.0599E4,3.805E3,8.556E3,1.1039E4,2.85359E5,1.92E3,8.7E1,1E1,7.6666E4,2.98E2,4.21E2,2.85E2,6.1429E4,9.17E3,4.44E2,3.361E3,3.222E3,5.334E3,7.951E3,3.088E3,2.82392E5,2.967E3,1.711E3,2.09E2,1.4E1,7.3E1,8E0,2E0,6.455E4,1.2116E4,2.23E2,7.5E1,2.97E2,1.24E2,1.96E2,8.9E1,6.0879E4,5.5E2,4.819E3,4.351E3,3.88E2,5.6E1,2.948E3,4.13E2,8.38E2,2.384E3,3.878E3,1.456E3,7.264E3,6.87E2,2.386E3,7.02E2,2.8182E5,5.72E2,2.881E3,8.6E1,1.036E3,6.75E2,1.5E1,1.94E2,1.3E1,1E0,6.8E1,5E0,5E0,3E0,4.2979E4,2.1571E4,1.131E4,8.06E2,1.21E2,1.02E2,4.3E1,3.2E1,2.2E2,7.7E1,5.2E1,7.2E1,1.68E2,2.8E1,3E1,5.9E1,1.5308E4,4.5571E4,4.22E2,1.28E2,2.364E3,2.455E3,2.174E3,2.177E3,9.5E1,2.93E2,4.6E1,1E1,1.814E3,1.134E3,2.52E2,1.61E2,4.13E2,4.25E2,3.34E2,2.05E3,3.68E2,3.51E3,1.12E3,3.36E2,6.613E3,6.51E2,3.71E2,3.16E2,1.867E3,5.19E2,4.85E2,2.17E2],"tree_param":{"num_deleted":"0","num_feature":"43","num_nodes":"125","size_leaf_vector":"1"}},{"base_weights":[1.2930656E-7,-6.948551E-5,3.1406732E-4,-1.1250926E-4,6.340458E-5,2.3730825E-4,5.9918576E-4,-1.1215192E-4,-4.7142003E-4,3.743853E-5,2.2467069E-4,1.5551505E-4,5.8066676E-4,8.1423226E-5,7.0726575E-4,-1.12857626E-4,1.483324E-5,-6.48897E-4,-1.1110196E-4,8.632118E-5,-1.1952003E-4,1.5517665E-4,8.900123E-4,1.782433E-4,-1.3453785E-3,8.3321985E-4,1.992123E-4,-3.0632634E-4,5.165408E-4,1.1229928E-3,4.2312487E-4,-1.13346636E-4,-6.892793E-5,-3.7331943E-4,6.1367726E-5,-1.791341E-4,-2.8604956E-4,1.900968E-5,1.8732251E-4,-2.9702435E-4,6.524312E-5,1.3428816E-4,1.8190354E-3,2.7585314E-3,6.731252E-4,1.4233119E-4,8.198872E-4,-1.0187656E-3,-4.9777203E-3,-1.4300635E-5,1.231005E-3,-9.886719E-4,5.589393E-4,-3.745153E-5,-1.8850914E-3,1.2611116E-3,-8.989413E-5,2.8650276E-3,1.0323427E-3,9.831183E-5,7.613501E-4,-3.40898E-5,1.6777165E-6,-5.24835E-5,4.7998083E-6,-1.5156825E-4,-6.964374E-5,1.2724101E-5,3.5853573E-4,4.0814382E-5,-2.3584213E-5,8.454634E-5,-2.9894873E-5,-3.3235356E-5,-1.1585315E-4,9.3630326E-5,-2.7205E-5,6.159382E-5,-4.8926202E-5,7.388702E-4,3.9300817E-4,5.618091E-4,3.0738849E-3,1.2926549E-4,3.429692E-4,5.4882727E-5,-1.0425549E-4,-1.5284617E-4,3.2222498E-4,-2.2816176E-4,-5.5810896E-4,-1.1326248E-3,-1.959007E-3,2.3446271E-4,-1.5035912E-4,2.9810323E-4,7.8924885E-4,-4.0488972E-4,6.542938E-4,1.4022553E-4,7.3197583E-4,3.0862016E-4,-9.140629E-5,-1.02054E-3,-5.18454E-4,1.8464972E-4,5.825321E-4,-4.6866594E-4,1.3266392E-4,2.8396116E-4,1.3104938E-3,3.9168293E-4,8.7673994E-5,1.3623104E-4,-1.2871677E-4,5.426904E-4,1.9619288E-4],"categories":[],"categories_nodes":[],"categories_segments":[],"categories_sizes":[],"default_left":[0,0,0,0,0,0,0,0,0,0,0,0,0,0,0,0,0,0,0,0,0,0,0,0,0,0,0,0,0,0,0,0,0,0,0,0,0,0,0,0,0,0,0,0,0,0,0,0,0,0,0,0,0,0,0,0,0,0,0,0,0,0,0,0,0,0,0,0,0,0,0,0,0,0,0,0,0,0,0,0,0,0,0,0,0,0,0,0,0,0,0,0,0,0,0,0,0,0,0,0,0,0,0,0,0,0,0,0,0,0,0,0,0,0,0,0,0],"id":12,"left_children":[1,3,5,7,9,11,13,15,17,19,21,23,25,27,29,31,33,35,-1,37,39,41,43,45,47,49,51,53,55,57,59,61,63,65,67,-1,-1,69,71,73,75,77,79,81,83,85,87,89,91,93,95,97,99,101,103,105,107,109,111,113,115,-1,-1,-1,-1,-1,-1,-1,-1,-1,-1,-1,-1,-1,-1,-1,-1,-1,-1,-1,-1,-1,-1,-1,-1,-1,-1,-1,-1,-1,-1,-1,-1,-1,-1,-1,-1,-1,-1,-1,-1,-1,-1,-1,-1,-1,-1,-1,-1,-1,-1,-1,-1,-1,-1,-1,-1],"loss_changes":[1.0032351E-2,2.148217E-3,1.8232865E-3,3.6349986E-5,3.8479257E-4,1.8435379E-3,9.888634E-4,2.54123E-5,4.8185975E-6,6.0730043E-4,5.891097E-4,1.8088265E-3,1.21648E-3,5.1525014E-4,1.7265137E-3,6.0498714E-6,2.8344888E-5,1.0237563E-6,0E0,4.1032306E-4,6.164906E-4,4.0083402E-4,4.8647856E-4,1.2033619E-3,9.3334727E-4,2.561538E-3,2.1507966E-3,6.8548106E-4,6.498704E-4,9.34273E-4,9.541685E-4,9.487849E-6,2.7977429E-5,3.0112005E-6,3.0055668E-5,0E0,0E0,4.1383848E-4,6.5458636E-4,1.5913788E-4,3.5457523E-4,2.4077023E-4,4.3639302E-5,8.099252E-4,1.2261001E-4,9.840104E-4,9.359147E-4,1.5657867E-4,9.6658594E-5,9.412248E-4,1.7152801E-3,1.3415625E-3,6.6387083E-4,3.9379238E-4,5.004846E-5,2.8268562E-4,6.2273827E-4,8.408886E-4,1.1408809E-3,8.317844E-4,4.7744834E-4,0E0,0E0,0E0,0E0,0E0,0E0,0E0,0E0,0E0,0E0,0E0,0E0,0E0,0E0,0E0,0E0,0E0,0E0,0E0,0E0,0E0,0E0,0E0,0E0,0E0,0E0,0E0,0E0,0E0,0E0,0E0,0E0,0E0,0E0,0E0,0E0,0E0,0E0,0E0,0E0,0E0,0E0,0E0,0E0,0E0,0E0,0E0,0E0,0E0,0E0,0E0,0E0,0E0,0E0,0E0,0E0],"parents":[2147483647,0,0,1,1,2,2,3,3,4,4,5,5,6,6,7,7,8,8,9,9,10,10,11,11,12,12,13,13,14,14,15,15,16,16,17,17,19,19,20,20,21,21,22,22,23,23,24,24,25,25,26,26,27,27,28,28,29,29,30,30,31,31,32,32,33,33,34,34,37,37,38,38,39,39,40,40,41,41,42,42,43,43,44,44,45,45,46,46,47,47,48,48,49,49,50,50,51,51,52,52,53,53,54,54,55,55,56,56,57,57,58,58,59,59,60,60],"right_children":[2,4,6,8,10,12,14,16,18,20,22,24,26,28,30,32,34,36,-1,38,40,42,44,46,48,50,52,54,56,58,60,62,64,66,68,-1,-1,70,72,74,76,78,80,82,84,86,88,90,92,94,96,98,100,102,104,106,108,110,112,114,116,-1,-1,-1,-1,-1,-1,-1,-1,-1,-1,-1,-1,-1,-1,-1,-1,-1,-1,-1,-1,-1,-1,-1,-1,-1,-1,-1,-1,-1,-1,-1,-1,-1,-1,-1,-1,-1,-1,-1,-1,-1,-1,-1,-1,-1,-1,-1,-1,-1,-1,-1,-1,-1,-1,-1,-1],"split_conditions":[1.9665277E-2,9.443284E-3,3.1477908E-4,1.2117195E-2,4E1,4.2156677E-4,1.2E1,1.0307548E-2,9.28266E-3,3.4E1,8.858338E-5,9.6170756E-4,2.8E1,2.3620749E-2,2.6E1,8.888236E-3,9.269644E-3,1.88E2,-1.1110196E-4,1.2E1,3.7E1,1.3196821E-3,9.289869E-5,6.11465E-4,4.015427E-2,1.2E1,3E1,2.2208348E-2,2.768748E-2,1.3E1,3.2E1,8.888236E-3,8E0,9.218805E-3,2.96E2,-1.791341E-4,-2.8604956E-4,2.39E2,2.0967122E-2,3.5E1,1.37E2,4.4E1,1.6188601E-2,8.852601E-5,1.4394618E-2,1.1043281E-4,1.2E1,3.650552E-2,4.2153712E-2,5E0,2.2377606E-2,4.9811065E-2,4.5177177E-2,2E0,1.5990095E-2,2.7428608E-2,2.998728E-2,1.39E2,2.3580415E-3,2.9E1,3.3E1,-3.40898E-5,1.6777165E-6,-5.24835E-5,4.7998083E-6,-1.5156825E-4,-6.964374E-5,1.2724101E-5,3.5853573E-4,4.0814382E-5,-2.3584213E-5,8.454634E-5,-2.9894873E-5,-3.3235356E-5,-1.1585315E-4,9.3630326E-5,-2.7205E-5,6.159382E-5,-4.8926202E-5,7.388702E-4,3.9300817E-4,5.618091E-4,3.0738849E-3,1.2926549E-4,3.429692E-4,5.4882727E-5,-1.0425549E-4,-1.5284617E-4,3.2222498E-4,-2.2816176E-4,-5.5810896E-4,-1.1326248E-3,-1.959007E-3,2.3446271E-4,-1.5035912E-4,2.9810323E-4,7.8924885E-4,-4.0488972E-4,6.542938E-4,1.4022553E-4,7.3197583E-4,3.0862016E-4,-9.140629E-5,-1.02054E-3,-5.18454E-4,1.8464972E-4,5.825321E-4,-4.6866594E-4,1.3266392E-4,2.8396116E-4,1.3104938E-3,3.9168293E-4,8.7673994E-5,1.3623104E-4,-1.2871677E-4,5.426904E-4,1.9619288E-4],"split_indices":[35,35,39,13,3,40,3,13,35,3,39,29,3,39,3,35,24,0,0,3,3,41,28,41,35,3,3,28,28,3,3,13,3,24,1,0,0,1,13,3,0,3,35,28,10,17,3,35,35,3,40,20,33,3,17,13,39,0,4,3,3,0,0,0,0,0,0,0,0,0,0,0,0,0,0,0,0,0,0,0,0,0,0,0,0,0,0,0,0,0,0,0,0,0,0,0,0,0,0,0,0,0,0,0,0,0,0,0,0,0,0,0,0,0,0,0,0],"split_type":[0,0,0,0,0,0,0,0,0,0,0,0,0,0,0,0,0,0,0,0,0,0,0,0,0,0,0,0,0,0,0,0,0,0,0,0,0,0,0,0,0,0,0,0,0,0,0,0,0,0,0,0,0,0,0,0,0,0,0,0,0,0,0,0,0,0,0,0,0,0,0,0,0,0,0,0,0,0,0,0,0,0,0,0,0,0,0,0,0,0,0,0,0,0,0,0,0,0,0,0,0,0,0,0,0,0,0,0,0,0,0,0,0,0,0,0,0],"sum_hessian":[4.59045E5,3.75729E5,8.3316E4,2.83836E5,9.1893E4,6.5645E4,1.7671E4,2.83555E5,2.81E2,7.915E4,1.2743E4,5.3017E4,1.2628E4,3.052E3,1.4619E4,2.81988E5,1.567E3,1E2,1.81E2,6.0354E4,1.8796E4,1.1539E4,1.204E3,5.2227E4,7.9E2,7.597E3,5.031E3,1.614E3,1.438E3,5.934E3,8.685E3,2.78882E5,3.106E3,1.67E2,1.4E3,8.8E1,1.2E1,3.6218E4,2.4136E4,9.586E3,9.21E3,1.1397E4,1.42E2,1.24E2,1.08E3,4.946E4,2.767E3,7.26E2,6.4E1,2.427E3,5.17E3,1.169E3,3.862E3,1.38E3,2.34E2,6.45E2,7.93E2,2.92E2,5.642E3,4.431E3,4.254E3,2.78213E5,6.69E2,1.381E3,1.725E3,8.5E1,8.2E1,1.378E3,2.2E1,1.6471E4,1.9747E4,1.8157E4,5.979E3,3.104E3,6.482E3,3.565E3,5.645E3,9.2E3,2.197E3,6.1E1,8.1E1,1.12E2,1.2E1,7.14E2,3.66E2,4.5674E4,3.786E3,4.44E2,2.323E3,5.57E2,1.69E2,3.8E1,2.6E1,9.21E2,1.506E3,4.422E3,7.48E2,1.05E3,1.19E2,3.684E3,1.78E2,2.76E2,1.104E3,2E1,2.14E2,3.32E2,3.13E2,2.1E2,5.83E2,1.29E2,1.63E2,4.12E3,1.522E3,2.646E3,1.785E3,3.94E2,3.86E3],"tree_param":{"num_deleted":"0","num_feature":"43","num_nodes":"117","size_leaf_vector":"1"}},{"base_weights":[1.0186547E-7,-5.2523155E-5,2.2310417E-4,-7.658782E-5,4.285122E-5,5.961071E-4,1.7377875E-4,-7.405867E-5,-8.3393854E-4,5.4235137E-5,-8.097853E-4,1.0107105E-4,1.6118308E-3,-1.5153426E-4,2.5991976E-4,-7.892601E-5,3.0297004E-5,-2.5853937E-4,-9.835208E-4,3.9834421E-4,3.1825475E-5,-1.3980085E-3,-4.1593742E-4,7.831845E-4,-1.8421764E-4,3.9202595E-4,1.9282007E-3,3.066614E-4,-6.171206E-4,5.578421E-4,1.1451232E-4,-7.8718374E-5,-2.0174247E-4,-1.5887363E-5,3.0963568E-4,-3.1422143E-4,8.5868314E-4,-7.449349E-4,-1.6660626E-3,1.7128034E-4,1.2758301E-3,-1.3940902E-3,4.143202E-5,-1.6020316E-3,-5.346141E-4,-4.9767375E-4,2.4301691E-4,-2.2231169E-4,1.8008592E-3,-1.4240104E-3,1.7066459E-5,-8.97309E-5,1.0445054E-3,2.4560853E-3,9.674883E-4,-9.995803E-4,5.574211E-4,-5.219541E-4,-2.7251863E-3,4.5533772E-4,3.4940646E-3,-2.4044944E-5,3.106208E-4,-2.3786539E-5,-4.6427567E-6,-7.3427494E-5,5.88297E-5,-1.05398585E-5,2.3124403E-4,2.0120891E-4,3.0342188E-5,-1.7976156E-4,-6.214485E-5,-1.0225922E-5,3.258409E-4,-1.4487986E-4,-2.999842E-4,-3.503368E-4,-6.856742E-4,2.416097E-5,1.716722E-4,5.851931E-4,1.764007E-4,-4.875592E-4,-2.1021096E-5,1.4172422E-5,-2.617821E-4,-4.3642844E-4,-9.241907E-4,-3.061271E-5,-5.549177E-4,-1.07045875E-4,-3.4033015E-4,-6.417185E-5,2.2973942E-4,-2.352908E-4,1.4559602E-4,8.197946E-4,-2.9672126E-5,-5.760156E-4,-1.2503394E-4,7.3352945E-5,-1.9233451E-4,8.9613843E-4,-9.101708E-5,5.1041465E-4,2.4474674E-4,4.938799E-4,9.0501097E-4,1.7600773E-4,1.1658596E-3,-2.297196E-4,-6.9250143E-4,1.508978E-4,6.165849E-4,4.062007E-5,-2.2923917E-4,-7.087638E-4,-1.6122303E-3,3.0707673E-4,9.3806004E-5,1.6131998E-3,3.820941E-4,-2.8004619E-5,2.7299044E-4,1.3296612E-4,-7.429743E-5],"categories":[],"categories_nodes":[],"categories_segments":[],"categories_sizes":[],"default_left":[0,0,0,0,0,0,0,0,0,0,0,0,0,0,0,0,0,0,0,0,0,0,0,0,0,0,0,0,0,0,0,0,0,0,0,0,0,0,0,0,0,0,0,0,0,0,0,0,0,0,0,0,0,0,0,0,0,0,0,0,0,0,0,0,0,0,0,0,0,0,0,0,0,0,0,0,0,0,0,0,0,0,0,0,0,0,0,0,0,0,0,0,0,0,0,0,0,0,0,0,0,0,0,0,0,0,0,0,0,0,0,0,0,0,0,0,0,0,0,0,0,0,0,0,0,0,0],"id":13,"left_children":[1,3,5,7,9,11,13,15,17,19,21,23,25,27,29,31,33,35,37,39,41,43,45,47,49,51,53,55,57,59,61,63,65,67,69,71,73,75,77,79,81,83,85,87,89,91,93,95,97,99,101,103,105,107,109,111,113,115,117,119,121,123,125,-1,-1,-1,-1,-1,-1,-1,-1,-1,-1,-1,-1,-1,-1,-1,-1,-1,-1,-1,-1,-1,-1,-1,-1,-1,-1,-1,-1,-1,-1,-1,-1,-1,-1,-1,-1,-1,-1,-1,-1,-1,-1,-1,-1,-1,-1,-1,-1,-1,-1,-1,-1,-1,-1,-1,-1,-1,-1,-1,-1,-1,-1,-1,-1],"loss_changes":[5.3871465E-3,8.5242756E-4,1.612436E-3,5.680084E-4,7.2637945E-4,5.146701E-3,2.1692838E-3,1.5014061E-4,8.469628E-5,5.69441E-4,2.2784562E-4,1.3395709E-3,1.2935847E-3,3.4576226E-3,2.6513007E-3,7.1859686E-6,1.6995084E-4,1.30227145E-5,1.262665E-4,8.9937414E-4,9.497759E-4,6.872369E-5,3.2006377E-5,2.0776347E-3,1.2113428E-3,2.1761455E-4,1.3481518E-3,2.676336E-3,1.6113399E-3,6.0401955E-3,1.1176295E-3,1.0163407E-5,8.194014E-6,1.7118987E-4,1.4062929E-4,5.856571E-6,2.0676562E-6,3.840268E-5,5.9686136E-5,1.3050207E-4,4.295893E-4,1.4186563E-4,3.657361E-4,6.49821E-5,4.3615008E-5,4.6862013E-5,1.592928E-5,4.0681227E-4,1.7863838E-3,3.3794763E-4,6.254495E-4,2.6320876E-4,4.2775646E-5,7.750038E-4,1.0491353E-3,4.0099525E-4,5.5774767E-4,1.2247963E-3,3.2063317E-4,1.572114E-3,2.824122E-3,1.5602873E-3,1.260725E-3,0E0,0E0,0E0,0E0,0E0,0E0,0E0,0E0,0E0,0E0,0E0,0E0,0E0,0E0,0E0,0E0,0E0,0E0,0E0,0E0,0E0,0E0,0E0,0E0,0E0,0E0,0E0,0E0,0E0,0E0,0E0,0E0,0E0,0E0,0E0,0E0,0E0,0E0,0E0,0E0,0E0,0E0,0E0,0E0,0E0,0E0,0E0,0E0,0E0,0E0,0E0,0E0,0E0,0E0,0E0,0E0,0E0,0E0,0E0,0E0,0E0,0E0,0E0,0E0],"parents":[2147483647,0,0,1,1,2,2,3,3,4,4,5,5,6,6,7,7,8,8,9,9,10,10,11,11,12,12,13,13,14,14,15,15,16,16,17,17,18,18,19,19,20,20,21,21,22,22,23,23,24,24,25,25,26,26,27,27,28,28,29,29,30,30,31,31,32,32,33,33,34,34,35,35,36,36,37,37,38,38,39,39,40,40,41,41,42,42,43,43,44,44,45,45,46,46,47,47,48,48,49,49,50,50,51,51,52,52,53,53,54,54,55,55,56,56,57,57,58,58,59,59,60,60,61,61,62,62],"right_children":[2,4,6,8,10,12,14,16,18,20,22,24,26,28,30,32,34,36,38,40,42,44,46,48,50,52,54,56,58,60,62,64,66,68,70,72,74,76,78,80,82,84,86,88,90,92,94,96,98,100,102,104,106,108,110,112,114,116,118,120,122,124,126,-1,-1,-1,-1,-1,-1,-1,-1,-1,-1,-1,-1,-1,-1,-1,-1,-1,-1,-1,-1,-1,-1,-1,-1,-1,-1,-1,-1,-1,-1,-1,-1,-1,-1,-1,-1,-1,-1,-1,-1,-1,-1,-1,-1,-1,-1,-1,-1,-1,-1,-1,-1,-1,-1,-1,-1,-1,-1,-1,-1,-1,-1,-1,-1],"split_conditions":[1.7559757E-2,1.0181861E-2,1.6E1,1.4670513E-2,2.138565E-2,1.2E1,2.1E1,9.585942E-3,2.38E2,2E0,1.35206E-2,5E0,2.1359615E-2,1.9E1,2.6E1,9.692593E-3,1.3E1,2.021847E-2,9.746791E-3,1.2048502E-2,3E0,1.859378E-2,1.5700588E-3,4E0,6E0,2.2396551E-2,3.650552E-2,1.7E1,3.650552E-2,2.9838294E-2,3.2E1,9.052221E-3,8E0,2.0751483E-3,2.8E1,2.08E2,1.19E2,9.520441E-3,1.36E2,1.0998412E-2,2.32E2,2.7136896E-2,2.3769815E-2,1.5366671E-3,2.6672257E-3,2.5531998E-2,1.3976004E-2,2.36E2,2.41E2,1.64E2,1.69E2,1.6454633E-2,2.25E2,2.3470368E-2,3.9214015E-2,4.519928E-2,4.110474E-2,2.5306763E-2,4.2153712E-2,1.19E2,2.9346041E-2,4.7029495E-2,4.3E1,-2.3786539E-5,-4.6427567E-6,-7.3427494E-5,5.88297E-5,-1.05398585E-5,2.3124403E-4,2.0120891E-4,3.0342188E-5,-1.7976156E-4,-6.214485E-5,-1.0225922E-5,3.258409E-4,-1.4487986E-4,-2.999842E-4,-3.503368E-4,-6.856742E-4,2.416097E-5,1.716722E-4,5.851931E-4,1.764007E-4,-4.875592E-4,-2.1021096E-5,1.4172422E-5,-2.617821E-4,-4.3642844E-4,-9.241907E-4,-3.061271E-5,-5.549177E-4,-1.07045875E-4,-3.4033015E-4,-6.417185E-5,2.2973942E-4,-2.352908E-4,1.4559602E-4,8.197946E-4,-2.9672126E-5,-5.760156E-4,-1.2503394E-4,7.3352945E-5,-1.9233451E-4,8.9613843E-4,-9.101708E-5,5.1041465E-4,2.4474674E-4,4.938799E-4,9.0501097E-4,1.7600773E-4,1.1658596E-3,-2.297196E-4,-6.9250143E-4,1.508978E-4,6.165849E-4,4.062007E-5,-2.2923917E-4,-7.087638E-4,-1.6122303E-3,3.0707673E-4,9.3806004E-5,1.6131998E-3,3.820941E-4,-2.8004619E-5,2.7299044E-4,1.3296612E-4,-7.429743E-5],"split_indices":[13,13,3,24,23,3,3,35,1,3,12,3,24,3,3,24,3,35,13,33,3,37,39,3,3,35,35,3,35,23,3,13,3,41,3,1,0,13,0,13,1,22,35,4,4,35,12,1,1,0,0,35,1,13,13,34,35,24,35,0,13,24,3,0,0,0,0,0,0,0,0,0,0,0,0,0,0,0,0,0,0,0,0,0,0,0,0,0,0,0,0,0,0,0,0,0,0,0,0,0,0,0,0,0,0,0,0,0,0,0,0,0,0,0,0,0,0,0,0,0,0,0,0,0,0,0,0],"split_type":[0,0,0,0,0,0,0,0,0,0,0,0,0,0,0,0,0,0,0,0,0,0,0,0,0,0,0,0,0,0,0,0,0,0,0,0,0,0,0,0,0,0,0,0,0,0,0,0,0,0,0,0,0,0,0,0,0,0,0,0,0,0,0,0,0,0,0,0,0,0,0,0,0,0,0,0,0,0,0,0,0,0,0,0,0,0,0,0,0,0,0,0,0,0,0,0,0,0,0,0,0,0,0,0,0,0,0,0,0,0,0,0,0,0,0,0,0,0,0,0,0,0,0,0,0,0,0],"sum_hessian":[4.59045E5,3.71401E5,8.7644E4,2.96571E5,7.483E4,1.0235E4,7.7409E4,2.95585E5,9.86E2,7.3845E4,9.85E2,6.882E3,3.353E3,1.6206E4,6.1203E4,2.82413E5,1.3172E4,2.04E2,7.82E2,4.514E3,6.9331E4,3.94E2,5.91E2,2.029E3,4.853E3,6.91E2,2.662E3,8.168E3,8.038E3,2.0073E4,4.113E4,2.81938E5,4.75E2,1.1304E4,1.868E3,1.95E2,9E0,5.81E2,2.01E2,3.587E3,9.27E2,4.63E2,6.8868E4,3.18E2,7.6E1,5.26E2,6.5E1,1.021E3,1.008E3,6.77E2,4.176E3,3.98E2,2.93E2,1.717E3,9.45E2,1.315E3,6.853E3,7.692E3,3.46E2,1.9397E4,6.76E2,2.4102E4,1.7028E4,2.79419E5,2.519E3,4.29E2,4.6E1,1.1035E4,2.69E2,6.83E2,1.185E3,5.2E1,1.43E2,2E0,7E0,2.88E2,2.93E2,1.13E2,8.8E1,2.926E3,6.61E2,4.67E2,4.6E2,3.94E2,6.9E1,6.8434E4,4.34E2,2.91E2,2.7E1,5.8E1,1.8E1,4.32E2,9.4E1,3.5E1,3E1,5.69E2,4.52E2,6.76E2,3.32E2,4.53E2,2.24E2,3.104E3,1.072E3,2.5E1,3.73E2,7.4E1,2.19E2,7.04E2,1.013E3,8.37E2,1.08E2,1.117E3,1.98E2,6.614E3,2.39E2,2.071E3,5.621E3,3.06E2,4E1,3.891E3,1.5506E4,3.65E2,3.11E2,2.2438E4,1.664E3,1.376E4,3.268E3],"tree_param":{"num_deleted":"0","num_feature":"43","num_nodes":"127","size_leaf_vector":"1"}},{"base_weights":[7.3796464E-8,-3.0902964E-5,2.2056108E-4,-5.321062E-5,3.387572E-5,3.3154953E-4,-2.2535207E-5,-5.1117462E-5,-5.78144E-4,4.840257E-5,-2.917769E-4,1.1956012E-4,5.096234E-4,2.2209428E-4,-2.1251431E-4,-5.045997E-5,-1.1157813E-3,-1.7396337E-4,-7.0361805E-4,3.6339634E-4,3.643356E-5,-3.552804E-4,7.4260676E-4,2.1073314E-4,-3.7149037E-4,6.714997E-4,1.7045836E-4,2.7825002E-4,-1.95472E-3,-1.0898543E-4,-5.551635E-4,-5.5326043E-5,4.3432683E-5,-1.7593058E-3,-2.572079E-4,-2.0999784E-4,5.905986E-4,-3.185446E-4,-9.339645E-4,1.6506235E-4,1.0344988E-3,-1.105808E-3,4.3674107E-5,-6.948137E-4,-2.3088399E-4,-8.8677567E-4,1.0498723E-3,1.7868074E-4,2.470569E-3,-5.4429634E-4,1.2544066E-3,5.9871265E-4,2.0744884E-3,-2.0195275E-4,6.054561E-4,4.6811963E-4,-7.4388074E-5,1.4857467E-3,-2.5404613E-3,-1.6141337E-4,7.6692173E-4,-6.8307173E-4,7.3021714E-4,-1.6508058E-5,-2.6885715E-5,1.1851163E-5,8.354943E-4,-2.0134872E-4,-8.208973E-4,-1.3506148E-4,4.82843E-5,-1.2905084E-4,-3.365929E-5,2.3152377E-4,-2.9757155E-6,-1.8580449E-4,-5.293745E-5,-4.227256E-4,-2.1962369E-4,9.6045515E-5,9.729334E-6,-6.092153E-5,4.3420526E-4,-1.9795472E-4,-4.1637238E-4,1.3020133E-5,3.8853225E-3,-2.690373E-4,-1.1818121E-5,-5.118764E-5,-2.6805894E-4,-1.1670208E-3,-1.08478234E-4,5.874413E-4,1.5866912E-4,5.592379E-4,5.0529638E-5,1.2706887E-3,-1.0613938E-3,-1.2708567E-4,-3.7706652E-4,6.3779525E-4,1.8032026E-4,2.2727106E-4,6.526776E-5,1.1745186E-3,3.6052347E-4,-1.2041771E-4,1.0750224E-4,1.1741345E-4,4.8510957E-4,1.2117553E-4,9.0839603E-4,3.06273E-5,-3.4388277E-4,1.1003127E-3,-1.5489876E-4,-8.974276E-4,1.70333E-4,-1.21595316E-4,-1.6451002E-5,9.823949E-5,4.7070486E-4,-1.8307392E-4,-7.5592374E-4,3.003829E-4,-4.5514366E-4],"categories":[],"categories_nodes":[],"categories_segments":[],"categories_sizes":[],"default_left":[0,0,0,0,0,0,0,0,0,0,0,0,0,0,0,0,0,0,0,0,0,0,0,0,0,0,0,0,0,0,0,0,0,0,0,0,0,0,0,0,0,0,0,0,0,0,0,0,0,0,0,0,0,0,0,0,0,0,0,0,0,0,0,0,0,0,0,0,0,0,0,0,0,0,0,0,0,0,0,0,0,0,0,0,0,0,0,0,0,0,0,0,0,0,0,0,0,0,0,0,0,0,0,0,0,0,0,0,0,0,0,0,0,0,0,0,0,0,0,0,0,0,0,0,0,0,0],"id":14,"left_children":[1,3,5,7,9,11,13,15,17,19,21,23,25,27,29,31,33,35,37,39,41,43,45,47,49,51,53,55,57,59,61,63,65,67,69,71,73,75,77,79,81,83,85,87,89,91,93,95,97,99,101,103,105,107,109,111,113,115,117,119,121,123,125,-1,-1,-1,-1,-1,-1,-1,-1,-1,-1,-1,-1,-1,-1,-1,-1,-1,-1,-1,-1,-1,-1,-1,-1,-1,-1,-1,-1,-1,-1,-1,-1,-1,-1,-1,-1,-1,-1,-1,-1,-1,-1,-1,-1,-1,-1,-1,-1,-1,-1,-1,-1,-1,-1,-1,-1,-1,-1,-1,-1,-1,-1,-1,-1],"loss_changes":[3.1352825E-3,5.8163726E-4,1.5257217E-3,3.2893865E-4,4.8776413E-4,1.4654985E-3,8.2385406E-4,2.0869187E-4,6.0176768E-5,3.7210557E-4,2.8948372E-4,7.9363637E-4,1.1582794E-3,9.477865E-4,3.5389993E-4,1.361671E-4,1.0120988E-4,7.920842E-6,8.015361E-5,4.8072825E-4,7.864771E-4,1.7507968E-4,1.2859752E-4,1.0824343E-3,7.806408E-4,1.4572279E-3,1.1046246E-3,5.058817E-4,3.9674313E-4,3.5207E-4,3.8110965E-4,2.9020594E-6,1.5806229E-4,1.0979283E-4,6.5286813E-6,5.787133E-6,1.4218222E-6,1.4465091E-5,5.335512E-5,5.7379075E-5,4.213031E-4,7.444137E-5,3.3320714E-4,1.4717114E-4,1.21155084E-4,6.3261614E-5,1.00698846E-4,2.543319E-4,2.231524E-3,2.1531206E-4,1.5076145E-4,8.2203094E-4,1.1261646E-3,4.106939E-4,6.8043603E-4,8.0588274E-4,5.004605E-4,1.2857889E-4,2.3578305E-4,1.8797014E-4,1.521126E-4,2.8015347E-4,1.2944441E-4,0E0,0E0,0E0,0E0,0E0,0E0,0E0,0E0,0E0,0E0,0E0,0E0,0E0,0E0,0E0,0E0,0E0,0E0,0E0,0E0,0E0,0E0,0E0,0E0,0E0,0E0,0E0,0E0,0E0,0E0,0E0,0E0,0E0,0E0,0E0,0E0,0E0,0E0,0E0,0E0,0E0,0E0,0E0,0E0,0E0,0E0,0E0,0E0,0E0,0E0,0E0,0E0,0E0,0E0,0E0,0E0,0E0,0E0,0E0,0E0,0E0,0E0,0E0,0E0],"parents":[2147483647,0,0,1,1,2,2,3,3,4,4,5,5,6,6,7,7,8,8,9,9,10,10,11,11,12,12,13,13,14,14,15,15,16,16,17,17,18,18,19,19,20,20,21,21,22,22,23,23,24,24,25,25,26,26,27,27,28,28,29,29,30,30,31,31,32,32,33,33,34,34,35,35,36,36,37,37,38,38,39,39,40,40,41,41,42,42,43,43,44,44,45,45,46,46,47,47,48,48,49,49,50,50,51,51,52,52,53,53,54,54,55,55,56,56,57,57,58,58,59,59,60,60,61,61,62,62],"right_children":[2,4,6,8,10,12,14,16,18,20,22,24,26,28,30,32,34,36,38,40,42,44,46,48,50,52,54,56,58,60,62,64,66,68,70,72,74,76,78,80,82,84,86,88,90,92,94,96,98,100,102,104,106,108,110,112,114,116,118,120,122,124,126,-1,-1,-1,-1,-1,-1,-1,-1,-1,-1,-1,-1,-1,-1,-1,-1,-1,-1,-1,-1,-1,-1,-1,-1,-1,-1,-1,-1,-1,-1,-1,-1,-1,-1,-1,-1,-1,-1,-1,-1,-1,-1,-1,-1,-1,-1,-1,-1,-1,-1,-1,-1,-1,-1,-1,-1,-1,-1,-1,-1,-1,-1,-1,-1],"split_conditions":[2.5217637E-2,1.03413835E-2,2.55E2,1.4501879E-2,2.5642969E-2,2.28E2,1.54E2,1.9119587E-2,2.38E2,2E0,3.363581E-2,3.568768E-2,2.9820085E-3,4.3513227E-2,3.0876275E-2,9.585942E-3,2.65E2,2.021847E-2,1.41095035E-2,1.34439245E-2,3E0,2.21E2,2.2923198E-2,3.934771E-2,2.3015846E-2,3.3279294E-3,2.2377606E-2,2.8E1,2.7922027E-2,3.3388466E-2,1.4804421E-3,9.31138E-3,6.389547E-3,2.49E2,1.0860923E-2,2.09E2,1.9940943E-2,2.57E2,2.58E2,1.45E2,1.15E2,2.32E2,4.981572E-2,2.499151E-2,4.3E1,2.5724176E-2,1.6E1,5E0,4.7029495E-2,1.4005554E-2,2.9E1,2.39E2,2.5E1,6.19682E-4,3.6E1,4.212493E-2,3.2016423E-2,2.61E2,2.89E2,2.5477318E-2,2.9315313E-2,2.8E1,2.8E1,-1.6508058E-5,-2.6885715E-5,1.1851163E-5,8.354943E-4,-2.0134872E-4,-8.208973E-4,-1.3506148E-4,4.82843E-5,-1.2905084E-4,-3.365929E-5,2.3152377E-4,-2.9757155E-6,-1.8580449E-4,-5.293745E-5,-4.227256E-4,-2.1962369E-4,9.6045515E-5,9.729334E-6,-6.092153E-5,4.3420526E-4,-1.9795472E-4,-4.1637238E-4,1.3020133E-5,3.8853225E-3,-2.690373E-4,-1.1818121E-5,-5.118764E-5,-2.6805894E-4,-1.1670208E-3,-1.08478234E-4,5.874413E-4,1.5866912E-4,5.592379E-4,5.0529638E-5,1.2706887E-3,-1.0613938E-3,-1.2708567E-4,-3.7706652E-4,6.3779525E-4,1.8032026E-4,2.2727106E-4,6.526776E-5,1.1745186E-3,3.6052347E-4,-1.2041771E-4,1.0750224E-4,1.1741345E-4,4.8510957E-4,1.2117553E-4,9.0839603E-4,3.06273E-5,-3.4388277E-4,1.1003127E-3,-1.5489876E-4,-8.974276E-4,1.70333E-4,-1.21595316E-4,-1.6451002E-5,9.823949E-5,4.7070486E-4,-1.8307392E-4,-7.5592374E-4,3.003829E-4,-4.5514366E-4],"split_indices":[13,13,1,24,20,1,0,35,1,3,34,23,7,33,35,35,1,35,35,35,3,1,12,34,41,40,40,3,13,24,38,24,30,1,23,1,23,1,1,0,0,1,34,13,3,21,3,3,35,15,3,1,3,37,3,13,20,1,1,24,35,3,3,0,0,0,0,0,0,0,0,0,0,0,0,0,0,0,0,0,0,0,0,0,0,0,0,0,0,0,0,0,0,0,0,0,0,0,0,0,0,0,0,0,0,0,0,0,0,0,0,0,0,0,0,0,0,0,0,0,0,0,0,0,0,0,0],"split_type":[0,0,0,0,0,0,0,0,0,0,0,0,0,0,0,0,0,0,0,0,0,0,0,0,0,0,0,0,0,0,0,0,0,0,0,0,0,0,0,0,0,0,0,0,0,0,0,0,0,0,0,0,0,0,0,0,0,0,0,0,0,0,0,0,0,0,0,0,0,0,0,0,0,0,0,0,0,0,0,0,0,0,0,0,0,0,0,0,0,0,0,0,0,0,0,0,0,0,0,0,0,0,0,0,0,0,0,0,0,0,0,0,0,0,0,0,0,0,0,0,0,0,0,0,0,0,0],"sum_hessian":[4.59045E5,4.02498E5,5.6547E4,2.99396E5,1.03102E5,3.8822E4,1.7725E4,2.98208E5,1.188E3,9.87E4,4.402E3,1.7724E4,2.1098E4,7.748E3,9.977E3,2.98025E5,1.83E2,2.82E2,9.06E2,3.612E3,9.5088E4,4.148E3,2.54E2,1.4949E4,2.775E3,1.4281E4,6.817E3,7.554E3,1.94E2,7.663E3,2.314E3,2.83341E5,1.4684E4,1.04E2,7.9E1,2.7E2,1.2E1,3.4E2,5.66E2,2.789E3,8.23E2,5.98E2,9.449E4,1.111E3,3.037E3,4E1,2.14E2,1.4741E4,2.08E2,2.509E3,2.66E2,1.3578E4,7.03E2,3.673E3,3.144E3,4.91E3,2.644E3,2.8E1,1.66E2,7.231E3,4.32E2,2.105E3,2.09E2,2.80893E5,2.448E3,1.4664E4,2E1,5E1,5.4E1,5.4E1,2.5E1,8.2E1,1.88E2,9E0,3E0,1.08E2,2.32E2,1.67E2,3.99E2,1.285E3,1.504E3,2.06E2,6.17E2,2.33E2,3.65E2,9.4489E4,1E0,8.49E2,2.62E2,2.785E3,2.52E2,5E0,3.5E1,7.7E1,1.37E2,8.8E1,1.4653E4,1.61E2,4.7E1,2.147E3,3.62E2,1.13E2,1.53E2,9.583E3,3.995E3,2.25E2,4.78E2,2.709E3,9.64E2,2.596E3,5.48E2,4.791E3,1.19E2,2.271E3,3.73E2,1.3E1,1.5E1,1.45E2,2.1E1,2.198E3,5.033E3,2.8E2,1.52E2,2.026E3,7.9E1,1.87E2,2.2E1],"tree_param":{"num_deleted":"0","num_feature":"43","num_nodes":"127","size_leaf_vector":"1"}},{"base_weights":[6.330416E-8,-2.1949578E-5,1.5239991E-4,-3.7853377E-5,2.3588907E-5,2.4737444E-4,-5.1538515E-5,-3.665205E-5,-2.8139693E-4,3.407472E-5,-2.5113896E-4,2.3435302E-4,1.4927179E-3,7.8134464E-5,-1.9457717E-4,-3.90368E-5,2.7744645E-5,-8.10492E-5,-4.318611E-4,1.6945472E-5,1.937032E-4,1.3276801E-4,-4.1284095E-4,2.864056E-4,-2.0981719E-5,9.417871E-4,4.560963E-3,2.4205657E-4,-2.597589E-4,-3.007129E-4,2.3857449E-4,-3.855589E-5,-3.038198E-4,1.745723E-5,4.5737138E-4,-8.994188E-5,5.395829E-4,-3.4963948E-4,-6.7724026E-4,6.562783E-5,-8.443071E-5,5.77414E-4,-5.0634662E-6,-3.147845E-4,1.1503722E-3,-3.8104967E-4,-2.0812573E-3,1.1707513E-4,4.0517715E-4,-8.836674E-4,1.5346796E-4,1.7742998E-3,-7.8261876E-4,5.0094575E-3,1.3632186E-3,1.7824375E-4,2.090337E-3,9.625541E-4,-3.5616852E-4,-2.0729385E-4,-1.4633214E-3,8.9561363E-4,-3.940691E-4,-1.1579225E-5,1.20231554E-4,-1.4572713E-4,-7.7707475E-5,9.454903E-5,1.6537243E-6,1.1599778E-4,4.362336E-4,-3.5307927E-5,1.3368104E-4,-1.1345305E-4,1.685076E-5,-2.1572788E-4,-1.3775639E-5,-4.632908E-6,5.0851922E-5,-7.161749E-5,1.6278185E-5,2.6304068E-4,-5.593584E-5,7.5197386E-5,-6.445756E-5,8.910033E-5,-2.1517691E-4,-9.890177E-5,4.2044808E-4,-1.2187163E-4,5.4642727E-4,-7.632618E-4,-1.7037784E-4,1.4878677E-4,-1.8972587E-5,5.302148E-4,6.537257E-5,-1.7512063E-4,-4.8615207E-4,3.9260168E-4,1.3594827E-5,-2.1228744E-4,7.195635E-4,-4.902044E-4,2.1474651E-4,-6.2362873E-4,1.5547259E-3,1.8534088E-4,5.507972E-4,-5.1302562E-5,1.3795235E-4,1.1588578E-3,-1.0799066E-4,1.1714562E-3,2.264201E-4,5.6813664E-5,-1.4794835E-4,4.6908198E-4,-6.703519E-5,-4.8484173E-4,1.9465672E-4,1.04553554E-4,5.579846E-4,-2.9345776E-5,-4.7304886E-4],"categories":[],"categories_nodes":[],"categories_segments":[],"categories_sizes":[],"default_left":[0,0,0,0,0,0,0,0,0,0,0,0,0,0,0,0,0,0,0,0,0,0,0,0,0,0,0,0,0,0,0,0,0,0,0,0,0,0,0,0,0,0,0,0,0,0,0,0,0,0,0,0,0,0,0,0,0,0,0,0,0,0,0,0,0,0,0,0,0,0,0,0,0,0,0,0,0,0,0,0,0,0,0,0,0,0,0,0,0,0,0,0,0,0,0,0,0,0,0,0,0,0,0,0,0,0,0,0,0,0,0,0,0,0,0,0,0,0,0,0,0,0,0,0,0],"id":15,"left_children":[1,3,5,7,9,11,13,15,17,19,21,23,25,27,29,31,33,35,37,39,41,43,45,47,49,51,53,55,57,59,61,63,65,67,69,71,-1,73,75,77,79,81,83,85,87,89,91,93,95,97,99,101,103,105,107,109,111,113,115,117,119,121,123,-1,-1,-1,-1,-1,-1,-1,-1,-1,-1,-1,-1,-1,-1,-1,-1,-1,-1,-1,-1,-1,-1,-1,-1,-1,-1,-1,-1,-1,-1,-1,-1,-1,-1,-1,-1,-1,-1,-1,-1,-1,-1,-1,-1,-1,-1,-1,-1,-1,-1,-1,-1,-1,-1,-1,-1,-1,-1,-1,-1,-1,-1],"loss_changes":[1.5393534E-3,2.9048356E-4,1.1225989E-3,8.696382E-5,2.990846E-4,6.408843E-4,3.4159975E-4,4.542913E-5,4.3946784E-5,2.7343654E-4,2.3700851E-4,5.2014226E-4,6.870742E-4,5.351128E-4,4.026562E-4,3.631122E-5,4.668224E-5,1.0642207E-5,1.6569364E-5,4.4572106E-4,7.3912495E-4,5.159104E-4,1.4167538E-4,6.537421E-4,9.976181E-4,5.009739E-4,8.20898E-5,7.668533E-4,3.7225446E-4,7.6365797E-4,7.169708E-4,5.210226E-6,4.0876585E-6,3.668954E-5,1.684673E-5,9.341209E-6,0E0,7.2707553E-6,5.4628545E-6,5.138335E-4,6.2701164E-4,7.5645035E-4,3.4260325E-4,1.9399324E-4,1.2906009E-4,1.4703628E-4,3.3584787E-5,9.1570657E-4,4.8735226E-3,2.4547102E-4,6.888461E-4,3.6578975E-4,1.4660695E-4,7.6976605E-5,2.0374246E-6,6.1859254E-4,9.438696E-4,1.3830248E-4,2.1877076E-4,1.8667098E-4,1.698616E-4,4.4569233E-4,3.0784082E-4,0E0,0E0,0E0,0E0,0E0,0E0,0E0,0E0,0E0,0E0,0E0,0E0,0E0,0E0,0E0,0E0,0E0,0E0,0E0,0E0,0E0,0E0,0E0,0E0,0E0,0E0,0E0,0E0,0E0,0E0,0E0,0E0,0E0,0E0,0E0,0E0,0E0,0E0,0E0,0E0,0E0,0E0,0E0,0E0,0E0,0E0,0E0,0E0,0E0,0E0,0E0,0E0,0E0,0E0,0E0,0E0,0E0,0E0,0E0,0E0,0E0,0E0],"parents":[2147483647,0,0,1,1,2,2,3,3,4,4,5,5,6,6,7,7,8,8,9,9,10,10,11,11,12,12,13,13,14,14,15,15,16,16,17,17,18,